{"learner":{"attributes":{"scikit_learn":"{\"_estimator_type\": \"regressor\"}"},"feature_names":["daily_op_hours","daily_load_percent","humidity","wind_gust_kph","dust_index","pressure_diff_psi","casing_temperature_c","vibration_mm_s","operational_class_High Duty","operational_class_Low Duty","operational_class_Medium Duty"],"feature_types":["float","float","float","float","float","float","float","float","i","i","i"],"gradient_booster":{"model":{"cats":{"enc":[],"feature_segments":[],"sorted_idx":[]},"gbtree_model_param":{"num_parallel_tree":"1","num_trees":"600"},"iteration_indptr":[0,1,2,3,4,5,6,7,8,9,10,11,12,13,14,15,16,17,18,19,20,21,22,23,24,25,26,27,28,29,30,31,32,33,34,35,36,37,38,39,40,41,42,43,44,45,46,47,48,49,50,51,52,53,54,55,56,57,58,59,60,61,62,63,64,65,66,67,68,69,70,71,72,73,74,75,76,77,78,79,80,81,82,83,84,85,86,87,88,89,90,91,92,93,94,95,96,97,98,99,100,101,102,103,104,105,106,107,108,109,110,111,112,113,114,115,116,117,118,119,120,121,122,123,124,125,126,127,128,129,130,131,132,133,134,135,136,137,138,139,140,141,142,143,144,145,146,147,148,149,150,151,152,153,154,155,156,157,158,159,160,161,162,163,164,165,166,167,168,169,170,171,172,173,174,175,176,177,178,179,180,181,182,183,184,185,186,187,188,189,190,191,192,193,194,195,196,197,198,199,200,201,202,203,204,205,206,207,208,209,210,211,212,213,214,215,216,217,218,219,220,221,222,223,224,225,226,227,228,229,230,231,232,233,234,235,236,237,238,239,240,241,242,243,244,245,246,247,248,249,250,251,252,253,254,255,256,257,258,259,260,261,262,263,264,265,266,267,268,269,270,271,272,273,274,275,276,277,278,279,280,281,282,283,284,285,286,287,288,289,290,291,292,293,294,295,296,297,298,299,300,301,302,303,304,305,306,307,308,309,310,311,312,313,314,315,316,317,318,319,320,321,322,323,324,325,326,327,328,329,330,331,332,333,334,335,336,337,338,339,340,341,342,343,344,345,346,347,348,349,350,351,352,353,354,355,356,357,358,359,360,361,362,363,364,365,366,367,368,369,370,371,372,373,374,375,376,377,378,379,380,381,382,383,384,385,386,387,388,389,390,391,392,393,394,395,396,397,398,399,400,401,402,403,404,405,406,407,408,409,410,411,412,413,414,415,416,417,418,419,420,421,422,423,424,425,426,427,428,429,430,431,432,433,434,435,436,437,438,439,440,441,442,443,444,445,446,447,448,449,450,451,452,453,454,455,456,457,458,459,460,461,462,463,464,465,466,467,468,469,470,471,472,473,474,475,476,477,478,479,480,481,482,483,484,485,486,487,488,489,490,491,492,493,494,495,496,497,498,499,500,501,502,503,504,505,506,507,508,509,510,511,512,513,514,515,516,517,518,519,520,521,522,523,524,525,526,527,528,529,530,531,532,533,534,535,536,537,538,539,540,541,542,543,544,545,546,547,548,549,550,551,552,553,554,555,556,557,558,559,560,561,562,563,564,565,566,567,568,569,570,571,572,573,574,575,576,577,578,579,580,581,582,583,584,585,586,587,588,589,590,591,592,593,594,595,596,597,598,599,600],"tree_info":[0,0,0,0,0,0,0,0,0,0,0,0,0,0,0,0,0,0,0,0,0,0,0,0,0,0,0,0,0,0,0,0,0,0,0,0,0,0,0,0,0,0,0,0,0,0,0,0,0,0,0,0,0,0,0,0,0,0,0,0,0,0,0,0,0,0,0,0,0,0,0,0,0,0,0,0,0,0,0,0,0,0,0,0,0,0,0,0,0,0,0,0,0,0,0,0,0,0,0,0,0,0,0,0,0,0,0,0,0,0,0,0,0,0,0,0,0,0,0,0,0,0,0,0,0,0,0,0,0,0,0,0,0,0,0,0,0,0,0,0,0,0,0,0,0,0,0,0,0,0,0,0,0,0,0,0,0,0,0,0,0,0,0,0,0,0,0,0,0,0,0,0,0,0,0,0,0,0,0,0,0,0,0,0,0,0,0,0,0,0,0,0,0,0,0,0,0,0,0,0,0,0,0,0,0,0,0,0,0,0,0,0,0,0,0,0,0,0,0,0,0,0,0,0,0,0,0,0,0,0,0,0,0,0,0,0,0,0,0,0,0,0,0,0,0,0,0,0,0,0,0,0,0,0,0,0,0,0,0,0,0,0,0,0,0,0,0,0,0,0,0,0,0,0,0,0,0,0,0,0,0,0,0,0,0,0,0,0,0,0,0,0,0,0,0,0,0,0,0,0,0,0,0,0,0,0,0,0,0,0,0,0,0,0,0,0,0,0,0,0,0,0,0,0,0,0,0,0,0,0,0,0,0,0,0,0,0,0,0,0,0,0,0,0,0,0,0,0,0,0,0,0,0,0,0,0,0,0,0,0,0,0,0,0,0,0,0,0,0,0,0,0,0,0,0,0,0,0,0,0,0,0,0,0,0,0,0,0,0,0,0,0,0,0,0,0,0,0,0,0,0,0,0,0,0,0,0,0,0,0,0,0,0,0,0,0,0,0,0,0,0,0,0,0,0,0,0,0,0,0,0,0,0,0,0,0,0,0,0,0,0,0,0,0,0,0,0,0,0,0,0,0,0,0,0,0,0,0,0,0,0,0,0,0,0,0,0,0,0,0,0,0,0,0,0,0,0,0,0,0,0,0,0,0,0,0,0,0,0,0,0,0,0,0,0,0,0,0,0,0,0,0,0,0,0,0,0,0,0,0,0,0,0,0,0,0,0,0,0,0,0,0,0,0,0,0,0,0,0,0,0,0,0,0,0,0,0,0,0,0,0,0,0,0,0,0,0,0,0,0,0,0,0,0,0,0,0,0,0,0,0,0,0,0,0,0,0,0,0,0,0,0,0,0,0,0,0,0,0,0,0,0,0,0,0,0,0,0,0,0,0,0,0,0,0,0,0,0,0,0],"trees":[{"base_weights":[4.1447276E-1,-1.6645277E0,2.5656105E1,-5.2256413E0,8.840304E0,1.6533546E1,3.561681E1,-1.246324E0,-7.716305E0,7.7597296E-1,1.1200227E1,2.5393684E1,5.0391045E0,4.949961E1,2.8040213E1,-1.0406155E-1,2.2033237E-1,8.2989925E-1,-2.3854864E-1,1.5152997E-1,-4.6565217E-1,2.9524896E-1,7.433641E-1,1.2678845E0,4.7858578E-1,-4.388465E-1,4.9677312E-1,1.5884237E0,8.5910535E-1,9.7173053E-1,4.0015113E-1],"categories":[],"categories_nodes":[],"categories_segments":[],"categories_sizes":[],"default_left":[0,0,0,0,0,0,0,0,0,0,0,0,0,0,0,0,0,0,0,0,0,0,0,0,0,0,0,0,0,0,0],"id":0,"left_children":[1,3,5,7,9,11,13,15,17,19,21,23,25,27,29,-1,-1,-1,-1,-1,-1,-1,-1,-1,-1,-1,-1,-1,-1,-1,-1],"loss_changes":[1.4550995E5,9.5887805E4,1.8584078E4,1.8960309E4,1.2342555E4,1.1278381E4,9.130453E3,1.4115376E4,1.0018977E4,1.0390025E4,9.016914E3,9.35907E3,1.1570607E4,9.294297E2,3.8536016E3,0E0,0E0,0E0,0E0,0E0,0E0,0E0,0E0,0E0,0E0,0E0,0E0,0E0,0E0,0E0,0E0],"parents":[2147483647,0,0,1,1,2,2,3,3,4,4,5,5,6,6,7,7,8,8,9,9,10,10,11,11,12,12,13,13,14,14],"right_children":[2,4,6,8,10,12,14,16,18,20,22,24,26,28,30,-1,-1,-1,-1,-1,-1,-1,-1,-1,-1,-1,-1,-1,-1,-1,-1],"split_conditions":[8.43E1,1E0,8.84E1,4.8589544E0,4.590528E1,8.74E1,4.3239098E0,2.24E1,9.6E0,4.4891426E1,6.089E1,1.34E1,1.95E1,9.51E1,9.51E1,-1.0406155E-1,2.2033237E-1,8.2989925E-1,-2.3854864E-1,1.5152997E-1,-4.6565217E-1,2.9524896E-1,7.433641E-1,1.2678845E0,4.7858578E-1,-4.388465E-1,4.9677312E-1,1.5884237E0,8.5910535E-1,9.7173053E-1,4.0015113E-1],"split_indices":[2,9,2,7,1,2,7,3,3,1,4,3,3,2,2,0,0,0,0,0,0,0,0,0,0,0,0,0,0,0,0],"split_type":[0,0,0,0,0,0,0,0,0,0,0,0,0,0,0,0,0,0,0,0,0,0,0,0,0,0,0,0,0,0,0],"sum_hessian":[2.771E3,2.561E3,2.1E2,1.913E3,6.48E2,1.11E2,9.9E1,7.37E2,1.176E3,1.47E2,5.01E2,6.2E1,4.9E1,3.3E1,6.6E1,5.86E2,1.51E2,7E0,1.169E3,1.17E2,3E1,4.57E2,4.4E1,2.1E1,4.1E1,1.8E1,3.1E1,2.7E1,6E0,5E1,1.6E1],"tree_param":{"num_deleted":"0","num_feature":"11","num_nodes":"31","size_leaf_vector":"1"}},{"base_weights":[-6.5603726E-2,-2.072152E0,2.4967865E1,8.137954E0,-5.45506E0,1.6363842E1,3.5246258E1,4.0612783E0,3.8337734E1,-8.081661E0,9.618859E0,-5.8696957E0,2.0593773E1,5.0108864E1,2.873079E1,-3.796589E-3,3.5838476E-1,-2.6314577E-1,1.2118167E0,-3.342271E-1,-1.4318188E-1,7.502028E-1,1.09625734E-1,1.4815152E-1,-1.1135998E0,1.0251181E0,4.0778893E-1,1.62158E0,8.1890273E-1,9.903905E-1,3.0484286E-1],"categories":[],"categories_nodes":[],"categories_segments":[],"categories_sizes":[],"default_left":[0,0,0,0,0,0,0,0,0,0,0,0,0,0,0,0,0,0,0,0,0,0,0,0,0,0,0,0,0,0,0],"id":1,"left_children":[1,3,5,7,9,11,13,15,17,19,21,23,25,27,29,-1,-1,-1,-1,-1,-1,-1,-1,-1,-1,-1,-1,-1,-1,-1,-1],"loss_changes":[1.3944238E5,8.88118E4,1.764096E4,7.86377E4,7.653217E4,1.084216E4,7.566172E3,1.8658121E4,7.7159688E3,1.6598867E4,2.6250545E4,6.6006714E3,8.660207E3,9.536328E2,4.9922617E3,0E0,0E0,0E0,0E0,0E0,0E0,0E0,0E0,0E0,0E0,0E0,0E0,0E0,0E0,0E0,0E0],"parents":[2147483647,0,0,1,1,2,2,3,3,4,4,5,5,6,6,7,7,8,8,9,9,10,10,11,11,12,12,13,13,14,14],"right_children":[2,4,6,8,10,12,14,16,18,20,22,24,26,28,30,-1,-1,-1,-1,-1,-1,-1,-1,-1,-1,-1,-1,-1,-1,-1,-1],"split_conditions":[8.43E1,1.2E1,8.84E1,3.876803E1,4.2677223E1,3.4916782E1,4.2437754E0,3.437321E1,4.14E1,3.7040894E1,4.8671455E0,1.5250829E1,1.0336104E1,9.51E1,9.51E1,-3.796589E-3,3.5838476E-1,-2.6314577E-1,1.2118167E0,-3.342271E-1,-1.4318188E-1,7.502028E-1,1.09625734E-1,1.4815152E-1,-1.1135998E0,1.0251181E0,4.0778893E-1,1.62158E0,8.1890273E-1,9.903905E-1,3.0484286E-1],"split_indices":[2,0,2,6,6,6,7,6,2,6,7,0,5,2,2,0,0,0,0,0,0,0,0,0,0,0,0,0,0,0,0],"split_type":[0,0,0,0,0,0,0,0,0,0,0,0,0,0,0,0,0,0,0,0,0,0,0,0,0,0,0,0,0,0,0],"sum_hessian":[2.774E3,2.569E3,2.05E2,6.39E2,1.93E3,1.13E2,9.2E1,5.64E2,7.5E1,1.644E3,2.86E2,1.8E1,9.5E1,2.6E1,6.6E1,3.69E2,1.95E2,3E0,7.2E1,8.53E2,7.91E2,7.9E1,2.07E2,1.4E1,4E0,3.1E1,6.4E1,2.1E1,5E0,5.3E1,1.3E1],"tree_param":{"num_deleted":"0","num_feature":"11","num_nodes":"31","size_leaf_vector":"1"}},{"base_weights":[-1.1856142E-1,-2.1018775E0,2.2861399E1,7.1700983E0,-5.748719E0,1.3305527E1,3.462171E1,-3.1855574E1,7.708898E0,1.0118327E0,-5.940563E0,2.0476942E1,3.4474895E0,4.7137325E1,2.8127365E1,-9.952583E-2,-1.3083669E0,1.7885101E-1,4.6415004E-1,-1.3928926E-1,-3.9483747E-1,1.1584874E0,3.931949E-1,-4.078318E-1,4.2563564E-1,1.5368215E0,7.5635344E-1,9.482442E-1,3.807725E-1],"categories":[],"categories_nodes":[],"categories_segments":[],"categories_sizes":[],"default_left":[0,0,0,0,0,0,0,0,0,0,0,0,0,0,0,0,0,0,0,0,0,0,0,0,0,0,0,0,0],"id":2,"left_children":[1,3,5,7,9,11,13,15,17,-1,19,21,23,25,27,-1,-1,-1,-1,-1,-1,-1,-1,-1,-1,-1,-1,-1,-1],"loss_changes":[1.26203875E5,8.623164E4,2.4262953E4,1.5385023E4,1.4059543E4,8.625023E3,6.639672E3,3.2104365E3,9.551125E3,0E0,1.7010074E4,8.986205E3,9.893785E3,1.5781172E3,3.1984297E3,0E0,0E0,0E0,0E0,0E0,0E0,0E0,0E0,0E0,0E0,0E0,0E0,0E0,0E0],"parents":[2147483647,0,0,1,1,2,2,3,3,4,4,5,5,6,6,7,7,8,8,10,10,11,11,12,12,13,13,14,14],"right_children":[2,4,6,8,10,12,14,16,18,-1,20,22,24,26,28,-1,-1,-1,-1,-1,-1,-1,-1,-1,-1,-1,-1,-1,-1],"split_conditions":[8.35E1,1.3193577E1,8.84E1,3.03E1,9.2E0,8.74E1,1.4237361E1,9.065911E0,2.42E1,1.0118327E0,7.49E1,1.34E1,1.95E1,9.51E1,9.51E1,-9.952583E-2,-1.3083669E0,1.7885101E-1,4.6415004E-1,-1.3928926E-1,-3.9483747E-1,1.1584874E0,3.931949E-1,-4.078318E-1,4.2563564E-1,1.5368215E0,7.5635344E-1,9.482442E-1,3.807725E-1],"split_indices":[2,0,2,2,3,2,0,5,3,0,2,3,3,2,2,0,0,0,0,0,0,0,0,0,0,0,0,0,0],"split_type":[0,0,0,0,0,0,0,0,0,0,0,0,0,0,0,0,0,0,0,0,0,0,0,0,0,0,0,0,0],"sum_hessian":[2.767E3,2.548E3,2.19E2,7.19E2,1.829E3,1.22E2,9.7E1,9E0,7.1E2,8E0,1.821E3,7E1,5.2E1,3.1E1,6.6E1,3E0,6E0,5.81E2,1.29E2,1.545E3,2.76E2,1.9E1,5.1E1,2E1,3.2E1,2.5E1,6E0,5.3E1,1.3E1],"tree_param":{"num_deleted":"0","num_feature":"11","num_nodes":"29","size_leaf_vector":"1"}},{"base_weights":[3.277189E-1,-1.6357328E0,2.4689936E1,6.9524684E0,-5.071989E0,1.4706576E1,3.3797615E1,4.654917E0,1.3844798E1,1.2673007E0,-6.7511616E0,2.6408514E1,1.2355088E0,4.430125E1,2.5591825E1,4.2408714E-1,8.072903E-2,5.2263665E-1,-1.7613932E-1,-1.1364089E-2,3.788936E-1,-9.14293E-1,-1.9450249E-1,1.2619714E0,4.298891E-1,-5.9650093E-1,4.0374678E-1,1.4243523E0,7.789265E-1,8.9196855E-1,2.6929438E-1],"categories":[],"categories_nodes":[],"categories_segments":[],"categories_sizes":[],"default_left":[0,0,0,0,0,0,0,0,0,0,0,0,0,0,0,0,0,0,0,0,0,0,0,0,0,0,0,0,0,0,0],"id":3,"left_children":[1,3,5,7,9,11,13,15,17,19,21,23,25,27,29,-1,-1,-1,-1,-1,-1,-1,-1,-1,-1,-1,-1,-1,-1,-1,-1],"loss_changes":[1.3340167E5,7.620383E4,1.8415398E4,1.1622141E4,1.9637488E4,1.588877E4,8.1748438E3,1.02965205E4,1.3076711E4,7.243166E3,9.064086E3,9.60977E3,1.2657836E4,1.4472031E3,4.067207E3,0E0,0E0,0E0,0E0,0E0,0E0,0E0,0E0,0E0,0E0,0E0,0E0,0E0,0E0,0E0,0E0],"parents":[2147483647,0,0,1,1,2,2,3,3,4,4,5,5,6,6,7,7,8,8,9,9,10,10,11,11,12,12,13,13,14,14],"right_children":[2,4,6,8,10,12,14,16,18,20,22,24,26,28,30,-1,-1,-1,-1,-1,-1,-1,-1,-1,-1,-1,-1,-1,-1,-1,-1],"split_conditions":[8.46E1,1.3193577E1,8.84E1,2.24E1,4.587734E0,8.74E1,1.5411624E1,7.735571E0,7.63E1,1.1314786E1,1.3431865E1,1.34E1,1.95E1,9.51E1,9.51E1,4.2408714E-1,8.072903E-2,5.2263665E-1,-1.7613932E-1,-1.1364089E-2,3.788936E-1,-9.14293E-1,-1.9450249E-1,1.2619714E0,4.298891E-1,-5.9650093E-1,4.0374678E-1,1.4243523E0,7.789265E-1,8.9196855E-1,2.6929438E-1],"split_indices":[2,0,2,3,7,2,0,0,2,5,0,3,3,2,2,0,0,0,0,0,0,0,0,0,0,0,0,0,0,0,0],"split_type":[0,0,0,0,0,0,0,0,0,0,0,0,0,0,0,0,0,0,0,0,0,0,0,0,0,0,0,0,0,0,0],"sum_hessian":[2.787E3,2.58E3,2.07E2,7.37E2,1.843E3,1E2,1.07E2,5.54E2,1.83E2,3.86E2,1.457E3,5.3E1,4.7E1,4.5E1,6.2E1,9.4E1,4.6E2,1.55E2,2.8E1,3.38E2,4.8E1,1.5E1,1.442E3,2.2E1,3.1E1,1.7E1,3E1,3.7E1,8E0,4.9E1,1.3E1],"tree_param":{"num_deleted":"0","num_feature":"11","num_nodes":"31","size_leaf_vector":"1"}},{"base_weights":[-2.1476461E-1,7.228271E0,-4.532449E0,2.7771268E0,2.2610493E1,-6.279641E0,1.3222497E1,6.8219857E0,-4.186217E0,3.6843914E1,1.674454E1,-9.94785E0,-3.018336E0,1.9456009E1,-1.4679662E0,5.4884385E-2,4.769757E-1,-6.5990597E-1,-8.807681E-2,6.977578E-1,1.2673485E0,3.5789037E-1,1.2220098E0,-1.3092074E-1,-3.8479438E-1,1.6148533E-1,-1.8711887E-1,8.086073E-1,3.5640538E-1,-5.725584E-1,1.904266E-1],"categories":[],"categories_nodes":[],"categories_segments":[],"categories_sizes":[],"default_left":[0,0,0,0,0,0,0,0,0,0,0,0,0,0,0,0,0,0,0,0,0,0,0,0,0,0,0,0,0,0,0],"id":4,"left_children":[1,3,5,7,9,11,13,15,17,19,21,23,25,27,29,-1,-1,-1,-1,-1,-1,-1,-1,-1,-1,-1,-1,-1,-1,-1,-1],"loss_changes":[8.937273E4,6.984353E4,5.468053E4,2.2363992E4,1.850286E4,1.914689E4,1.4497123E4,2.272055E4,6.437988E3,3.8601797E3,1.8456766E4,1.2063656E4,2.302018E4,5.984621E3,6.730192E3,0E0,0E0,0E0,0E0,0E0,0E0,0E0,0E0,0E0,0E0,0E0,0E0,0E0,0E0,0E0,0E0],"parents":[2147483647,0,0,1,1,2,2,3,3,4,4,5,5,6,6,7,7,8,8,9,9,10,10,11,11,12,12,13,13,14,14],"right_children":[2,4,6,8,10,12,14,16,18,20,22,24,26,28,30,-1,-1,-1,-1,-1,-1,-1,-1,-1,-1,-1,-1,-1,-1,-1,-1],"split_conditions":[4.5247455E0,3.830063E1,4.406235E1,1.1109837E1,5.5100864E1,3.7203808E1,5.4227443E0,3.437321E1,2.8647364E1,3.9014454E1,4.2735718E1,3.771E1,4.87361E0,2.089316E1,2.0763279E1,5.4884385E-2,4.769757E-1,-6.5990597E-1,-8.807681E-2,6.977578E-1,1.2673485E0,3.5789037E-1,1.2220098E0,-1.3092074E-1,-3.8479438E-1,1.6148533E-1,-1.8711887E-1,8.086073E-1,3.5640538E-1,-5.725584E-1,1.904266E-1],"split_indices":[7,6,6,0,1,6,7,6,6,6,6,4,7,0,0,0,0,0,0,0,0,0,0,0,0,0,0,0,0,0,0],"split_type":[0,0,0,0,0,0,0,0,0,0,0,0,0,0,0,0,0,0,0,0,0,0,0,0,0,0,0,0,0,0,0],"sum_hessian":[2.779E3,1.02E3,1.759E3,7.92E2,2.28E2,1.602E3,1.57E2,5.01E2,2.91E2,6.5E1,1.63E2,7.53E2,8.49E2,1.1E2,4.7E1,3.24E2,1.77E2,1.8E1,2.73E2,2E1,4.5E1,1.37E2,2.6E1,2.57E2,4.96E2,2.35E2,6.14E2,5.4E1,5.6E1,1.4E1,3.3E1],"tree_param":{"num_deleted":"0","num_feature":"11","num_nodes":"31","size_leaf_vector":"1"}},{"base_weights":[-2.3562537E-1,-2.217025E0,2.1957075E1,3.528039E0,-7.222007E0,1.3906763E1,3.1576622E1,6.876332E0,-4.1502264E-1,-6.1598706E0,-1.3552773E1,3.709353E1,9.986139E0,4.3216843E1,2.504583E1,4.782711E-3,2.8481144E-1,-2.4290894E-1,3.9073072E-2,-2.1927088E-1,4.9886894E-1,-5.8827394E-1,-9.6634E-2,1.2050943E0,4.8852262E-1,6.6111636E-1,1.4278743E-1,1.380949E0,7.493883E-1,8.6815685E-1,3.4309134E-1],"categories":[],"categories_nodes":[],"categories_segments":[],"categories_sizes":[],"default_left":[0,0,0,0,0,0,0,0,0,0,0,0,0,0,0,0,0,0,0,0,0,0,0,0,0,0,0,0,0,0,0],"id":5,"left_children":[1,3,5,7,9,11,13,15,17,19,21,23,25,27,29,-1,-1,-1,-1,-1,-1,-1,-1,-1,-1,-1,-1,-1,-1,-1,-1],"loss_changes":[1.2339185E5,7.409563E4,1.7372156E4,1.5845884E4,9.175656E3,1.1174713E4,6.823664E3,1.1408373E4,7.293312E3,3.1049559E4,1.2263543E4,4.981543E2,6.823532E3,6.981797E2,3.3245234E3,0E0,0E0,0E0,0E0,0E0,0E0,0E0,0E0,0E0,0E0,0E0,0E0,0E0,0E0,0E0,0E0],"parents":[2147483647,0,0,1,1,2,2,3,3,4,4,5,5,6,6,7,7,8,8,9,9,10,10,11,11,12,12,13,13,14,14],"right_children":[2,4,6,8,10,12,14,16,18,20,22,24,26,28,30,-1,-1,-1,-1,-1,-1,-1,-1,-1,-1,-1,-1,-1,-1,-1,-1],"split_conditions":[8.35E1,4.722912E0,8.84E1,1.3193577E1,7.49E1,2.419E1,4.3239098E0,4.7073383E1,6.191392E1,7.36E1,7.92E1,5.273413E0,1.3670314E1,9.51E1,9.51E1,4.782711E-3,2.8481144E-1,-2.4290894E-1,3.9073072E-2,-2.1927088E-1,4.9886894E-1,-5.8827394E-1,-9.6634E-2,1.2050943E0,4.8852262E-1,6.6111636E-1,1.4278743E-1,1.380949E0,7.493883E-1,8.6815685E-1,3.4309134E-1],"split_indices":[2,7,2,0,2,4,7,1,1,2,2,7,0,2,2,0,0,0,0,0,0,0,0,0,0,0,0,0,0,0,0],"split_type":[0,0,0,0,0,0,0,0,0,0,0,0,0,0,0,0,0,0,0,0,0,0,0,0,0,0,0,0,0,0,0],"sum_hessian":[2.804E3,2.575E3,2.29E2,1.199E3,1.376E3,1.26E2,1.03E2,6.48E2,5.51E2,1.18E3,1.96E2,1.7E1,1.09E2,3.5E1,6.8E1,1.82E2,4.66E2,1E2,4.51E2,1.124E3,5.6E1,1.23E2,7.3E1,1.4E1,3E0,3.2E1,7.7E1,2.9E1,6E0,5.2E1,1.6E1],"tree_param":{"num_deleted":"0","num_feature":"11","num_nodes":"31","size_leaf_vector":"1"}},{"base_weights":[1.129281E-1,-1.7439232E0,2.1470375E1,7.2442713E0,-5.21492E0,1.2645995E1,3.162843E1,2.9150262E0,2.4540867E1,-9.482779E0,4.272507E0,-7.8428593E0,1.6070547E1,4.267558E1,2.50557E1,-9.982728E-3,2.749121E-1,8.550204E-1,5.3718127E-3,-2.4083035E-1,-5.284162E-1,5.863419E-1,-9.667553E-3,3.7563458E-1,-7.6158553E-1,8.632778E-1,3.4399495E-1,1.3796903E0,7.4739784E-1,8.2384866E-1,3.0932558E-1],"categories":[],"categories_nodes":[],"categories_segments":[],"categories_sizes":[],"default_left":[0,0,0,0,0,0,0,0,0,0,0,0,0,0,0,0,0,0,0,0,0,0,0,0,0,0,0,0,0,0,0],"id":6,"left_children":[1,3,5,7,9,11,13,15,17,19,21,23,25,27,29,-1,-1,-1,-1,-1,-1,-1,-1,-1,-1,-1,-1,-1,-1,-1,-1],"loss_changes":[1.1056319E5,8.006064E4,1.9589422E4,5.346853E4,7.498936E4,8.616021E3,6.4095625E3,1.1631775E4,1.3789852E4,1.49675E4,4.0355305E4,6.7484097E3,5.7536465E3,1.0322891E3,2.0936719E3,0E0,0E0,0E0,0E0,0E0,0E0,0E0,0E0,0E0,0E0,0E0,0E0,0E0,0E0,0E0,0E0],"parents":[2147483647,0,0,1,1,2,2,3,3,4,4,5,5,6,6,7,7,8,8,9,9,10,10,11,11,12,12,13,13,14,14],"right_children":[2,4,6,8,10,12,14,16,18,20,22,24,26,28,30,-1,-1,-1,-1,-1,-1,-1,-1,-1,-1,-1,-1,-1,-1,-1,-1],"split_conditions":[8.35E1,1.3193577E1,8.84E1,3.780513E1,4.029793E1,3.4916782E1,4.2437754E0,3.437321E1,4.8502703E0,7.49E1,4.7054834E0,4.0934E0,1.34E1,9.51E1,9.51E1,-9.982728E-3,2.749121E-1,8.550204E-1,5.3718127E-3,-2.4083035E-1,-5.284162E-1,5.863419E-1,-9.667553E-3,3.7563458E-1,-7.6158553E-1,8.632778E-1,3.4399495E-1,1.3796903E0,7.4739784E-1,8.2384866E-1,3.0932558E-1],"split_indices":[2,0,2,6,6,6,7,6,7,2,7,7,3,2,2,0,0,0,0,0,0,0,0,0,0,0,0,0,0,0,0],"split_type":[0,0,0,0,0,0,0,0,0,0,0,0,0,0,0,0,0,0,0,0,0,0,0,0,0,0,0,0,0,0,0],"sum_hessian":[2.786E3,2.564E3,2.22E2,7.14E2,1.85E3,1.2E2,1.02E2,5.72E2,1.42E2,1.276E3,5.74E2,1.7E1,1.03E2,3.6E1,6.6E1,3.77E2,1.95E2,1.22E2,2E1,1.084E3,1.92E2,1.32E2,4.42E2,8E0,9E0,2.6E1,7.7E1,2.9E1,7E0,5.6E1,1E1],"tree_param":{"num_deleted":"0","num_feature":"11","num_nodes":"31","size_leaf_vector":"1"}},{"base_weights":[6.5810317E-1,-1.1916159E0,2.0535933E1,7.1072626E0,-4.567085E0,1.3013302E1,2.9319473E1,2.780073E0,2.277595E1,-7.3601303E0,1.3073241E1,1.0011865E0,9.443254E0,4.5332497E1,2.5653902E1,6.066518E-2,5.4768515E-1,-5.8092403E-1,7.7143145E-1,-2.6409647E-1,-5.0731678E-2,8.437821E-1,2.1440199E-1,-2.8364643E-1,4.0217486E-1,1.4638835E0,6.0434645E-1,8.615041E-1,4.422668E-1],"categories":[],"categories_nodes":[],"categories_segments":[],"categories_sizes":[],"default_left":[0,0,0,0,0,0,0,0,0,0,0,0,0,0,0,0,0,0,0,0,0,0,0,0,0,0,0,0,0],"id":7,"left_children":[1,3,5,7,9,11,13,15,17,19,21,-1,23,25,27,-1,-1,-1,-1,-1,-1,-1,-1,-1,-1,-1,-1,-1,-1],"loss_changes":[1.0279214E5,7.168871E4,1.5344391E4,5.01097E4,8.9718766E4,9.133857E3,5.234992E3,6.77783E3,2.0310062E4,1.2837406E4,2.2012465E4,0E0,8.513901E3,6.745742E2,2.618E3,0E0,0E0,0E0,0E0,0E0,0E0,0E0,0E0,0E0,0E0,0E0,0E0,0E0,0E0],"parents":[2147483647,0,0,1,1,2,2,3,3,4,4,5,5,6,6,7,7,8,8,9,9,10,10,12,12,13,13,14,14],"right_children":[2,4,6,8,10,12,14,16,18,20,22,-1,24,26,28,-1,-1,-1,-1,-1,-1,-1,-1,-1,-1,-1,-1,-1,-1],"split_conditions":[8.35E1,1.3193577E1,8.84E1,3.757795E1,4.2920155E1,2.419E1,3.9589505E0,6.567E1,4.14E1,4.029793E1,4.8671455E0,1.0011865E0,3.4916782E1,9.51E1,9.51E1,6.066518E-2,5.4768515E-1,-5.8092403E-1,7.7143145E-1,-2.6409647E-1,-5.0731678E-2,8.437821E-1,2.1440199E-1,-2.8364643E-1,4.0217486E-1,1.4638835E0,6.0434645E-1,8.615041E-1,4.422668E-1],"split_indices":[2,0,2,6,6,4,7,4,2,6,7,0,6,2,2,0,0,0,0,0,0,0,0,0,0,0,0,0,0],"split_type":[0,0,0,0,0,0,0,0,0,0,0,0,0,0,0,0,0,0,0,0,0,0,0,0,0,0,0,0,0],"sum_hessian":[2.794E3,2.557E3,2.37E2,7.39E2,1.818E3,1.29E2,1.08E2,5.8E2,1.59E2,1.57E3,2.48E2,1.8E1,1.11E2,1.8E1,9E1,5.54E2,2.6E1,1E1,1.49E2,1.251E3,3.19E2,6.9E1,1.79E2,1.9E1,9.2E1,1.5E1,3E0,6.9E1,2.1E1],"tree_param":{"num_deleted":"0","num_feature":"11","num_nodes":"29","size_leaf_vector":"1"}},{"base_weights":[-2.7273527E-1,-1.9972895E0,2.1691307E1,3.5468936E0,-6.3482537E0,1.3171422E1,3.0082062E1,-1.2979708E0,1.7736319E1,-7.731264E0,1.5773317E1,-9.906555E0,1.7217743E1,3.39729E1,1.3456782E1,9.3498275E-2,-2.6429477E-1,9.418885E-1,4.1005933E-1,6.9713646E-1,-2.399651E-1,-7.0773727E-1,5.394371E-1,-8.049687E-1,4.7064862E-1,8.669619E-1,3.3854908E-1,6.148634E-1,1.1313663E0,6.8801093E-1,2.2164091E-2],"categories":[],"categories_nodes":[],"categories_segments":[],"categories_sizes":[],"default_left":[0,0,0,0,0,0,0,0,0,0,0,0,0,0,0,0,0,0,0,0,0,0,0,0,0,0,0,0,0,0,0],"id":8,"left_children":[1,3,5,7,9,11,13,15,17,19,21,23,25,27,29,-1,-1,-1,-1,-1,-1,-1,-1,-1,-1,-1,-1,-1,-1,-1,-1],"loss_changes":[1.0614012E5,6.2692883E4,1.4187391E4,7.859951E4,4.4667336E4,9.788801E3,6.140828E3,2.8314375E4,1.5740055E4,1.1546648E4,7.898787E3,7.352337E3,5.772336E3,3.3595703E3,2.514129E3,0E0,0E0,0E0,0E0,0E0,0E0,0E0,0E0,0E0,0E0,0E0,0E0,0E0,0E0,0E0,0E0],"parents":[2147483647,0,0,1,1,2,2,3,3,4,4,5,5,6,6,7,7,8,8,9,9,10,10,11,11,12,12,13,13,14,14],"right_children":[2,4,6,8,10,12,14,16,18,20,22,24,26,28,30,-1,-1,-1,-1,-1,-1,-1,-1,-1,-1,-1,-1,-1,-1,-1,-1],"split_conditions":[8.46E1,4.674256E0,8.84E1,3.830063E1,4.5045048E1,3.4916782E1,9.51E1,1.3E1,5.4749165E1,9.6E0,1.17E1,1.95E1,1.34E1,1.72E1,1.7022676E1,9.3498275E-2,-2.6429477E-1,9.418885E-1,4.1005933E-1,6.9713646E-1,-2.399651E-1,-7.0773727E-1,5.394371E-1,-8.049687E-1,4.7064862E-1,8.669619E-1,3.3854908E-1,6.148634E-1,1.1313663E0,6.8801093E-1,2.2164091E-2],"split_indices":[2,7,2,6,6,6,2,0,1,3,3,3,3,3,0,0,0,0,0,0,0,0,0,0,0,0,0,0,0,0,0],"split_type":[0,0,0,0,0,0,0,0,0,0,0,0,0,0,0,0,0,0,0,0,0,0,0,0,0,0,0,0,0,0,0],"sum_hessian":[2.8E3,2.597E3,2.03E2,1.142E3,1.455E3,1.02E2,1.01E2,8.52E2,2.9E2,1.37E3,8.5E1,1.5E1,8.7E1,8.1E1,2E1,5.37E2,3.15E2,6.5E1,2.25E2,1.1E1,1.359E3,4E0,8.1E1,9E0,6E0,2.8E1,5.9E1,1.9E1,6.2E1,1.1E1,9E0],"tree_param":{"num_deleted":"0","num_feature":"11","num_nodes":"31","size_leaf_vector":"1"}},{"base_weights":[8.5827686E-2,-1.5571337E0,1.8752127E1,-4.3307247E0,6.7748094E0,1.216213E1,2.725488E1,-6.6983123E0,1.2906841E1,3.7538705E0,3.2374218E1,1.8976217E1,3.0623026E0,3.0896E1,1.260626E1,-1.5156196E-1,-3.760044E-1,9.30765E-1,1.7783009E-1,-1.9775718E-3,3.2462433E-1,7.6244074E-1,1.291489E0,1.0204537E0,3.7978086E-1,-2.8758526E-1,3.8544688E-1,1.1083326E0,6.5135723E-1,5.420148E-1,1.4377666E-1],"categories":[],"categories_nodes":[],"categories_segments":[],"categories_sizes":[],"default_left":[0,0,0,0,0,0,0,0,0,0,0,0,0,0,0,0,0,0,0,0,0,0,0,0,0,0,0,0,0,0,0],"id":9,"left_children":[1,3,5,7,9,11,13,15,17,19,21,23,25,27,29,-1,-1,-1,-1,-1,-1,-1,-1,-1,-1,-1,-1,-1,-1,-1,-1],"loss_changes":[8.491824E4,5.8842766E4,1.22199375E4,7.803631E4,4.9063047E4,7.878785E3,4.784242E3,1.6074977E4,2.902679E4,1.5387421E4,3.8837266E3,6.504287E3,7.054682E3,3.475164E3,8.094785E2,0E0,0E0,0E0,0E0,0E0,0E0,0E0,0E0,0E0,0E0,0E0,0E0,0E0,0E0,0E0,0E0],"parents":[2147483647,0,0,1,1,2,2,3,3,4,4,5,5,6,6,7,7,8,8,9,9,10,10,11,11,12,12,13,13,14,14],"right_children":[2,4,6,8,10,12,14,16,18,20,22,24,26,28,30,-1,-1,-1,-1,-1,-1,-1,-1,-1,-1,-1,-1,-1,-1,-1,-1],"split_conditions":[8.35E1,1E0,8.84E1,4.3343235E1,3.876803E1,8.74E1,9.51E1,1.2146954E1,4.8671455E0,3.437321E1,4.0597332E1,1.34E1,1.95E1,1.1157524E1,3.8235397E1,-1.5156196E-1,-3.760044E-1,9.30765E-1,1.7783009E-1,-1.9775718E-3,3.2462433E-1,7.6244074E-1,1.291489E0,1.0204537E0,3.7978086E-1,-2.8758526E-1,3.8544688E-1,1.1083326E0,6.5135723E-1,5.420148E-1,1.4377666E-1],"split_indices":[2,9,2,6,6,2,2,5,7,6,6,3,3,5,6,0,0,0,0,0,0,0,0,0,0,0,0,0,0,0,0],"split_type":[0,0,0,0,0,0,0,0,0,0,0,0,0,0,0,0,0,0,0,0,0,0,0,0,0,0,0,0,0,0,0],"sum_hessian":[2.767E3,2.544E3,2.23E2,1.909E3,6.35E2,1.27E2,9.6E1,1.679E3,2.3E2,5.69E2,6.6E1,7.2E1,5.5E1,7.6E1,2E1,1.311E3,3.68E2,6.3E1,1.67E2,3.7E2,1.99E2,4.2E1,2.4E1,2E1,5.2E1,2.4E1,3.1E1,4.4E1,3.2E1,1.1E1,9E0],"tree_param":{"num_deleted":"0","num_feature":"11","num_nodes":"31","size_leaf_vector":"1"}},{"base_weights":[-2.8524852E-1,-1.9598101E0,1.9179022E1,5.457083E0,-4.9263067E0,1.1735854E1,2.7993464E1,-1.2419543E0,1.34234295E1,-8.825404E0,3.9111607E0,-4.6409693E0,1.4831939E1,3.6586502E1,2.1654995E1,3.998259E-1,-9.1327526E-2,4.94676E-1,-3.0567533E-1,-2.2723408E-1,-4.9180564E-1,5.9417677E-1,2.2327043E-2,1.7331097E-1,-8.973744E-1,7.734893E-1,3.223884E-1,1.1940968E0,6.7903006E-1,7.62958E-1,2.5886148E-1],"categories":[],"categories_nodes":[],"categories_segments":[],"categories_sizes":[],"default_left":[0,0,0,0,0,0,0,0,0,0,0,0,0,0,0,0,0,0,0,0,0,0,0,0,0,0,0,0,0,0,0],"id":10,"left_children":[1,3,5,7,9,11,13,15,17,19,21,23,25,27,29,-1,-1,-1,-1,-1,-1,-1,-1,-1,-1,-1,-1,-1,-1,-1,-1],"loss_changes":[9.051887E4,5.6286477E4,1.4105094E4,3.9027836E4,6.298955E4,6.2040234E3,4.654383E3,1.0491468E4,2.4346555E4,1.1880266E4,2.8174225E4,5.438378E3,4.286635E3,9.391758E2,2.7325234E3,0E0,0E0,0E0,0E0,0E0,0E0,0E0,0E0,0E0,0E0,0E0,0E0,0E0,0E0,0E0,0E0],"parents":[2147483647,0,0,1,1,2,2,3,3,4,4,5,5,6,6,7,7,8,8,9,9,10,10,11,11,12,12,13,13,14,14],"right_children":[2,4,6,8,10,12,14,16,18,20,22,24,26,28,30,-1,-1,-1,-1,-1,-1,-1,-1,-1,-1,-1,-1,-1,-1,-1,-1],"split_conditions":[8.35E1,1.3193577E1,8.84E1,3.437321E1,4.029793E1,3.4916782E1,1.5411624E1,1.16E1,4.8671455E0,7.49E1,4.587734E0,1.5250829E1,1.34E1,9.51E1,9.51E1,3.998259E-1,-9.1327526E-2,4.94676E-1,-3.0567533E-1,-2.2723408E-1,-4.9180564E-1,5.9417677E-1,2.2327043E-2,1.7331097E-1,-8.973744E-1,7.734893E-1,3.223884E-1,1.1940968E0,6.7903006E-1,7.62958E-1,2.5886148E-1],"split_indices":[2,0,2,6,6,6,0,3,7,2,7,0,3,2,2,0,0,0,0,0,0,0,0,0,0,0,0,0,0,0,0],"split_type":[0,0,0,0,0,0,0,0,0,0,0,0,0,0,0,0,0,0,0,0,0,0,0,0,0,0,0,0,0,0,0],"sum_hessian":[2.775E3,2.556E3,2.19E2,7.3E2,1.826E3,1.2E2,9.9E1,3.97E2,3.33E2,1.267E3,5.59E2,1.9E1,1.01E2,4E1,5.9E1,4.3E1,3.54E2,2.95E2,3.8E1,1.089E3,1.78E2,9.2E1,4.67E2,1.4E1,5E0,2.6E1,7.5E1,3.1E1,9E0,4.5E1,1.4E1],"tree_param":{"num_deleted":"0","num_feature":"11","num_nodes":"31","size_leaf_vector":"1"}},{"base_weights":[-2.5077425E-2,-1.713601E0,1.9809355E1,2.9880922E0,-5.623692E0,1.2674044E1,2.6893381E1,-1.6734033E0,1.4541867E1,-6.979326E0,1.7303E1,1.9427315E1,-6.3287497E-1,3.873291E1,2.2056932E1,5.5405583E-2,-2.3555225E-1,8.1280607E-1,2.9344815E-1,7.968493E-1,-2.1847898E-1,7.313382E-1,6.64651E-2,1.0498917E0,3.6075118E-1,-3.355947E-1,3.152851E-1,1.2916121E0,7.160171E-1,7.510377E-1,2.630322E-1],"categories":[],"categories_nodes":[],"categories_segments":[],"categories_sizes":[],"default_left":[0,0,0,0,0,0,0,0,0,0,0,0,0,0,0,0,0,0,0,0,0,0,0,0,0,0,0,0,0,0,0],"id":11,"left_children":[1,3,5,7,9,11,13,15,17,19,21,23,25,27,29,-1,-1,-1,-1,-1,-1,-1,-1,-1,-1,-1,-1,-1,-1,-1,-1],"loss_changes":[9.263629E4,4.6877746E4,1.0627805E4,6.2391742E4,4.33844E4,9.897471E3,5.329883E3,1.7979451E4,1.9631484E4,1.3571211E4,8.271955E3,7.99217E3,4.5860747E3,8.993867E2,2.906586E3,0E0,0E0,0E0,0E0,0E0,0E0,0E0,0E0,0E0,0E0,0E0,0E0,0E0,0E0,0E0,0E0],"parents":[2147483647,0,0,1,1,2,2,3,3,4,4,5,5,6,6,7,7,8,8,9,9,10,10,11,11,12,12,13,13,14,14],"right_children":[2,4,6,8,10,12,14,16,18,20,22,24,26,28,30,-1,-1,-1,-1,-1,-1,-1,-1,-1,-1,-1,-1,-1,-1,-1,-1],"split_conditions":[8.43E1,4.7054834E0,8.84E1,3.780513E1,4.5209248E1,8.76E1,1.4237361E1,1.3193577E1,4.082061E0,9.6E0,1.2877795E1,1.34E1,1.95E1,2.33E1,9.51E1,5.5405583E-2,-2.3555225E-1,8.1280607E-1,2.9344815E-1,7.968493E-1,-2.1847898E-1,7.313382E-1,6.64651E-2,1.0498917E0,3.6075118E-1,-3.355947E-1,3.152851E-1,1.2916121E0,7.160171E-1,7.510377E-1,2.630322E-1],"split_indices":[2,7,2,6,6,2,0,0,7,3,5,3,3,3,2,0,0,0,0,0,0,0,0,0,0,0,0,0,0,0,0],"split_type":[0,0,0,0,0,0,0,0,0,0,0,0,0,0,0,0,0,0,0,0,0,0,0,0,0,0,0,0,0,0,0],"sum_hessian":[2.764E3,2.548E3,2.16E2,1.157E3,1.391E3,1.09E2,1.07E2,8.25E2,3.32E2,1.314E3,7.7E1,7.2E1,3.7E1,2.9E1,7.8E1,5.26E2,2.99E2,9E1,2.42E2,1.1E1,1.303E3,5.2E1,2.5E1,2.2E1,5E1,1.9E1,1.8E1,2.1E1,8E0,6.3E1,1.5E1],"tree_param":{"num_deleted":"0","num_feature":"11","num_nodes":"31","size_leaf_vector":"1"}},{"base_weights":[6.81671E-2,-1.5145497E0,1.889925E1,5.9794693E0,-3.9003298E0,1.1709733E1,2.6673094E1,3.3740687E0,2.9415678E1,-5.7573E0,1.2841926E1,-4.927477E0,1.5301985E1,3.1354673E1,1.3645795E1,-1.413377E-2,2.9800826E-1,-9.492561E-2,9.6987224E-1,-1.2017808E-1,-3.34461E-1,1.042507E0,2.247468E-1,-4.8240143E-1,5.902445E-1,8.7291414E-1,3.126994E-1,1.1037694E0,7.7030784E-1,1.5167679E-1,6.7464375E-1],"categories":[],"categories_nodes":[],"categories_segments":[],"categories_sizes":[],"default_left":[0,0,0,0,0,0,0,0,0,0,0,0,0,0,0,0,0,0,0,0,0,0,0,0,0,0,0,0,0,0,0],"id":12,"left_children":[1,3,5,7,9,11,13,15,17,19,21,23,25,27,29,-1,-1,-1,-1,-1,-1,-1,-1,-1,-1,-1,-1,-1,-1,-1,-1],"loss_changes":[8.303353E4,4.5972566E4,1.1759945E4,3.7819453E4,6.0699176E4,6.888615E3,5.8539375E3,1.4129396E4,5.987215E3,1.653602E4,2.259707E4,6.0783276E3,6.0231016E3,1.3708047E3,2.0889897E3,0E0,0E0,0E0,0E0,0E0,0E0,0E0,0E0,0E0,0E0,0E0,0E0,0E0,0E0,0E0,0E0],"parents":[2147483647,0,0,1,1,2,2,3,3,4,4,5,5,6,6,7,7,8,8,9,9,10,10,11,11,12,12,13,13,14,14],"right_children":[2,4,6,8,10,12,14,16,18,20,22,24,26,28,30,-1,-1,-1,-1,-1,-1,-1,-1,-1,-1,-1,-1,-1,-1,-1,-1],"split_conditions":[8.43E1,1.2E1,8.84E1,3.9090046E1,4.363172E1,3.4916782E1,2.0036852E1,3.437321E1,4.6E1,1.2054835E1,1.6822008E1,1.95E1,1.34E1,1.4237361E1,1.2246998E1,-1.413377E-2,2.9800826E-1,-9.492561E-2,9.6987224E-1,-1.2017808E-1,-3.34461E-1,1.042507E0,2.247468E-1,-4.8240143E-1,5.902445E-1,8.7291414E-1,3.126994E-1,1.1037694E0,7.7030784E-1,1.5167679E-1,6.7464375E-1],"split_indices":[2,0,2,6,6,6,0,6,2,5,0,3,3,0,5,0,0,0,0,0,0,0,0,0,0,0,0,0,0,0,0],"split_type":[0,0,0,0,0,0,0,0,0,0,0,0,0,0,0,0,0,0,0,0,0,0,0,0,0,0,0,0,0,0,0],"sum_hessian":[2.784E3,2.569E3,2.15E2,6.2E2,1.949E3,1.13E2,1.02E2,5.59E2,6.1E1,1.755E3,1.94E2,2E1,9.3E1,7.4E1,2.8E1,3.53E2,2.06E2,5E0,5.6E1,1.326E3,4.29E2,3.7E1,1.57E2,1.4E1,6E0,2.3E1,7E1,3.5E1,3.9E1,1.5E1,1.3E1],"tree_param":{"num_deleted":"0","num_feature":"11","num_nodes":"31","size_leaf_vector":"1"}},{"base_weights":[2.258043E-1,5.3531437E0,-4.193056E0,1.4394454E0,1.6191269E1,-5.3851633E0,1.6560041E1,5.1965446E0,-5.6477733E0,2.4315096E1,1.0955324E1,2.5261538E1,-5.751363E0,2.219555E1,1.8158306E-1,4.1552E-2,3.5989717E-1,-2.3809487E-1,2.0354186E-1,2.9109186E-1,8.2244897E-1,2.1864013E-1,7.7950585E-1,9.544767E-1,3.4059146E-1,-3.1153482E-1,-1.115195E-1,8.822564E-1,4.421927E-1,-8.1638354E-1,3.646581E-1],"categories":[],"categories_nodes":[],"categories_segments":[],"categories_sizes":[],"default_left":[0,0,0,0,0,0,0,0,0,0,0,0,0,0,0,0,0,0,0,0,0,0,0,0,0,0,0,0,0,0,0],"id":13,"left_children":[1,3,5,7,9,11,13,15,17,19,21,23,25,27,29,-1,-1,-1,-1,-1,-1,-1,-1,-1,-1,-1,-1,-1,-1,-1,-1],"loss_changes":[6.348469E4,5.4991727E4,3.7322766E4,2.5431871E4,1.4365969E4,1.6126559E4,7.5646484E3,1.6156316E4,9.472304E3,5.803578E3,1.1439523E4,1.1885322E3,1.3230391E4,2.8470195E3,7.547033E3,0E0,0E0,0E0,0E0,0E0,0E0,0E0,0E0,0E0,0E0,0E0,0E0,0E0,0E0,0E0,0E0],"parents":[2147483647,0,0,1,1,2,2,3,3,4,4,5,5,6,6,7,7,8,8,9,9,10,10,11,11,12,12,13,13,14,14],"right_children":[2,4,6,8,10,12,14,16,18,20,22,24,26,28,30,-1,-1,-1,-1,-1,-1,-1,-1,-1,-1,-1,-1,-1,-1,-1,-1],"split_conditions":[4.7054834E0,3.830063E1,4.5209248E1,1.3793987E1,6.3406273E1,9.6E0,1.2877795E1,3.437321E1,2.28E1,3.876803E1,4.2920155E1,5.017827E0,3.5676018E1,1.74E1,1.41E1,4.1552E-2,3.5989717E-1,-2.3809487E-1,2.0354186E-1,2.9109186E-1,8.2244897E-1,2.1864013E-1,7.7950585E-1,9.544767E-1,3.4059146E-1,-3.1153482E-1,-1.115195E-1,8.822564E-1,4.421927E-1,-8.1638354E-1,3.646581E-1],"split_indices":[7,6,6,0,1,3,5,6,3,6,6,7,6,3,3,0,0,0,0,0,0,0,0,0,0,0,0,0,0,0,0],"split_type":[0,0,0,0,0,0,0,0,0,0,0,0,0,0,0,0,0,0,0,0,0,0,0,0,0,0,0,0,0,0,0],"sum_hessian":[2.8E3,1.296E3,1.504E3,9.53E2,3.43E2,1.423E3,8.1E1,6.23E2,3.3E2,1.33E2,2.1E2,1.6E1,1.407E3,6E1,2.1E1,4E2,2.23E2,2.79E2,5.1E1,2.4E1,1.09E2,1.7E2,4E1,1E1,6E0,4.28E2,9.79E2,2.9E1,3.1E1,6E0,1.5E1],"tree_param":{"num_deleted":"0","num_feature":"11","num_nodes":"31","size_leaf_vector":"1"}},{"base_weights":[-2.9249586E-2,-1.5313673E0,1.7466135E1,5.852116E0,-3.902085E0,1.0372381E1,2.5945856E1,2.2687843E0,2.74474E1,-6.31926E0,7.847086E0,2.887753E1,6.891898E0,3.74453E1,2.07215E1,-2.956388E-2,2.6903334E-1,-7.77039E-1,9.27938E-1,-1.5477577E-1,-3.217999E-1,6.38979E-1,5.1906835E-2,9.4671834E-1,3.2817465E-1,-4.4770572E-1,3.1353676E-1,1.1812992E0,5.973982E-1,6.9240105E-1,2.8410947E-1],"categories":[],"categories_nodes":[],"categories_segments":[],"categories_sizes":[],"default_left":[0,0,0,0,0,0,0,0,0,0,0,0,0,0,0,0,0,0,0,0,0,0,0,0,0,0,0,0,0,0,0],"id":14,"left_children":[1,3,5,7,9,11,13,15,17,19,21,23,25,27,29,-1,-1,-1,-1,-1,-1,-1,-1,-1,-1,-1,-1,-1,-1,-1,-1],"loss_changes":[7.345342E4,4.507853E4,1.3024703E4,4.837952E4,5.5400805E4,7.6586143E3,5.231797E3,1.1737334E4,1.7342688E4,8.212195E3,2.7364146E4,5.68125E2,8.231384E3,2.316914E2,1.6655059E3,0E0,0E0,0E0,0E0,0E0,0E0,0E0,0E0,0E0,0E0,0E0,0E0,0E0,0E0,0E0,0E0],"parents":[2147483647,0,0,1,1,2,2,3,3,4,4,5,5,6,6,7,7,8,8,9,9,10,10,11,11,12,12,13,13,14,14],"right_children":[2,4,6,8,10,12,14,16,18,20,22,24,26,28,30,-1,-1,-1,-1,-1,-1,-1,-1,-1,-1,-1,-1,-1,-1,-1,-1],"split_conditions":[8.35E1,5.7069305E1,8.84E1,3.811719E1,4.2360573E1,2.419E1,4.2437754E0,3.437321E1,4.14E1,1.2146954E1,4.87361E0,5.273413E0,3.486972E1,9.51E1,9.51E1,-2.956388E-2,2.6903334E-1,-7.77039E-1,9.27938E-1,-1.5477577E-1,-3.217999E-1,6.38979E-1,5.1906835E-2,9.4671834E-1,3.2817465E-1,-4.4770572E-1,3.1353676E-1,1.1812992E0,5.973982E-1,6.9240105E-1,2.8410947E-1],"split_indices":[2,1,2,6,6,4,7,6,2,5,7,7,6,2,2,0,0,0,0,0,0,0,0,0,0,0,0,0,0,0,0],"split_type":[0,0,0,0,0,0,0,0,0,0,0,0,0,0,0,0,0,0,0,0,0,0,0,0,0,0,0,0,0,0,0],"sum_hessian":[2.793E3,2.573E3,2.2E2,6.25E2,1.948E3,1.21E2,9.9E1,5.37E2,8.8E1,1.616E3,3.32E2,1.8E1,1.03E2,2.9E1,7E1,3.62E2,1.75E2,5E0,8.3E1,1.281E3,3.35E2,1.03E2,2.29E2,1.5E1,3E0,1.4E1,8.9E1,2.5E1,4E0,5.7E1,1.3E1],"tree_param":{"num_deleted":"0","num_feature":"11","num_nodes":"31","size_leaf_vector":"1"}},{"base_weights":[3.6488393E-1,-1.2331995E0,1.7915047E1,2.878296E0,-4.807908E0,1.0610708E1,2.5842037E1,1.2436662E0,2.6499119E0,-3.7608113E0,-1.0900811E1,1.646418E1,2.1892812E0,3.1087868E1,1.7925724E1,-6.1964776E-2,1.4758815E-1,-1.3029192E-1,9.068109E-1,-8.809403E-1,-2.0159112E-1,9.333016E-1,2.9853693E-1,-3.3290416E-1,3.2519582E-1,5.5567116E-1,1.0624214E0,2.725348E-1,7.806015E-1],"categories":[],"categories_nodes":[],"categories_segments":[],"categories_sizes":[],"default_left":[0,0,0,0,0,0,0,0,0,0,0,0,0,0,0,0,0,0,0,0,0,0,0,0,0,0,0,0,0],"id":15,"left_children":[1,3,5,7,9,11,13,-1,15,17,19,21,23,25,27,-1,-1,-1,-1,-1,-1,-1,-1,-1,-1,-1,-1,-1,-1],"loss_changes":[7.8973336E4,3.794782E4,1.3332641E4,1.0471473E4,8.769594E3,6.0764854E3,4.0938203E3,0E0,1.2799675E4,2.3482924E4,1.5396959E4,6.6537285E3,6.0967705E3,2.9318438E3,3.1271191E3,0E0,0E0,0E0,0E0,0E0,0E0,0E0,0E0,0E0,0E0,0E0,0E0,0E0,0E0],"parents":[2147483647,0,0,1,1,2,2,3,3,4,4,5,5,6,6,8,8,9,9,10,10,11,11,12,12,13,13,14,14],"right_children":[2,4,6,8,10,12,14,-1,16,18,20,22,24,26,28,-1,-1,-1,-1,-1,-1,-1,-1,-1,-1,-1,-1,-1,-1],"split_conditions":[8.35E1,4.722912E0,8.84E1,9.2E0,7.49E1,8.74E1,2.33E1,1.2436662E0,1.45E1,7.43E1,7.58E1,1.34E1,1.95E1,1.72E1,2.46E1,-6.1964776E-2,1.4758815E-1,-1.3029192E-1,9.068109E-1,-8.809403E-1,-2.0159112E-1,9.333016E-1,2.9853693E-1,-3.3290416E-1,3.2519582E-1,5.5567116E-1,1.0624214E0,2.725348E-1,7.806015E-1],"split_indices":[2,7,2,3,2,2,3,0,3,2,2,3,3,3,3,0,0,0,0,0,0,0,0,0,0,0,0,0,0],"split_type":[0,0,0,0,0,0,0,0,0,0,0,0,0,0,0,0,0,0,0,0,0,0,0,0,0,0,0,0,0],"sum_hessian":[2.814E3,2.58E3,2.34E2,1.2E3,1.38E3,1.23E2,1.11E2,6E0,1.194E3,1.179E3,2.01E2,7.2E1,5.1E1,6.5E1,4.6E1,3.88E2,8.06E2,1.16E3,1.9E1,3.6E1,1.65E2,2.1E1,5.1E1,2E1,3.1E1,1.8E1,4.7E1,2.3E1,2.3E1],"tree_param":{"num_deleted":"0","num_feature":"11","num_nodes":"29","size_leaf_vector":"1"}},{"base_weights":[-2.8246729E-2,-1.4880974E0,1.6985535E1,4.447091E0,-3.866607E0,9.952151E0,2.4393028E1,2.3594964E0,1.2353266E1,9.752721E-1,-4.0465374E0,3.3780746E1,7.310727E0,3.556721E1,1.9007534E1,2.7051413E-1,1.6838416E-2,5.3557974E-1,-7.032099E-2,-1.1655271E-1,-1.0712068E0,1.1631035E0,4.6070457E-1,-4.026431E-1,2.7593616E-1,1.1284248E0,4.9744427E-1,2.0801601E-1,6.452379E-1],"categories":[],"categories_nodes":[],"categories_segments":[],"categories_sizes":[],"default_left":[0,0,0,0,0,0,0,0,0,0,0,0,0,0,0,0,0,0,0,0,0,0,0,0,0,0,0,0,0],"id":16,"left_children":[1,3,5,7,9,11,13,15,17,-1,19,21,23,25,27,-1,-1,-1,-1,-1,-1,-1,-1,-1,-1,-1,-1,-1,-1],"loss_changes":[6.820444E4,3.5718844E4,1.1062879E4,1.1920393E4,1.1951969E4,6.865419E3,5.642699E3,6.866795E3,1.2246611E4,0E0,9.0516875E3,4.1577637E2,4.1532817E3,6.5877344E2,2.0546602E3,0E0,0E0,0E0,0E0,0E0,0E0,0E0,0E0,0E0,0E0,0E0,0E0,0E0,0E0],"parents":[2147483647,0,0,1,1,2,2,3,3,4,4,5,5,6,6,7,7,8,8,10,10,11,11,12,12,13,13,14,14],"right_children":[2,4,6,8,10,12,14,16,18,-1,20,22,24,26,28,-1,-1,-1,-1,-1,-1,-1,-1,-1,-1,-1,-1,-1,-1],"split_conditions":[8.35E1,1.3193577E1,8.84E1,2.37E1,9.2E0,9.5E0,1.4237361E1,8.03061E0,7.28E1,9.752721E-1,8.25E1,2E1,1.16E1,9.51E1,1.72E1,2.7051413E-1,1.6838416E-2,5.3557974E-1,-7.032099E-2,-1.1655271E-1,-1.0712068E0,1.1631035E0,4.6070457E-1,-4.026431E-1,2.7593616E-1,1.1284248E0,4.9744427E-1,2.0801601E-1,6.452379E-1],"split_indices":[2,0,2,3,3,3,0,0,2,0,2,0,3,2,3,0,0,0,0,0,0,0,0,0,0,0,0,0,0],"split_type":[0,0,0,0,0,0,0,0,0,0,0,0,0,0,0,0,0,0,0,0,0,0,0,0,0,0,0,0,0],"sum_hessian":[2.744E3,2.528E3,2.16E2,7.23E2,1.805E3,1.12E2,1.04E2,5.73E2,1.5E2,8E0,1.797E3,1E1,1.02E2,3.2E1,7.2E1,1.21E2,4.52E2,1.09E2,4.1E1,1.789E3,8E0,7E0,3E0,8E0,9.4E1,2.8E1,4E0,1.3E1,5.9E1],"tree_param":{"num_deleted":"0","num_feature":"11","num_nodes":"29","size_leaf_vector":"1"}},{"base_weights":[1.8108465E-1,6.5537367E0,-2.3231218E0,6.571981E-2,1.3453518E1,-5.883819E0,5.637139E0,1.4070866E1,-1.689983E0,1.6563705E1,5.8230333E0,-1.0691323E0,-7.634422E0,3.167891E0,1.8297394E1,1.0705398E0,2.745092E-1,-6.859751E-1,-1.9065714E-2,3.800239E-1,8.5611254E-1,-1.3080263E-1,4.272399E-1,-5.4512918E-2,6.3628775E-1,-3.448575E-1,-1.3003278E-1,2.9581398E-1,-4.9839668E-2,9.0397537E-1,3.7630394E-1],"categories":[],"categories_nodes":[],"categories_segments":[],"categories_sizes":[],"default_left":[0,0,0,0,0,0,0,0,0,0,0,0,0,0,0,0,0,0,0,0,0,0,0,0,0,0,0,0,0,0,0],"id":17,"left_children":[1,3,5,7,9,11,13,15,17,19,21,23,25,27,29,-1,-1,-1,-1,-1,-1,-1,-1,-1,-1,-1,-1,-1,-1,-1,-1],"loss_changes":[4.4124344E4,3.491651E4,5.6296164E4,9.933097E3,8.874336E3,1.1555883E4,1.9136482E4,4.4593125E3,8.0016055E3,1.2141023E4,9.577518E3,6.1541206E3,1.276734E4,1.6661117E4,6.431879E3,0E0,0E0,0E0,0E0,0E0,0E0,0E0,0E0,0E0,0E0,0E0,0E0,0E0,0E0,0E0,0E0],"parents":[2147483647,0,0,1,1,2,2,3,3,4,4,5,5,6,6,7,7,8,8,9,9,10,10,11,11,12,12,13,13,14,14],"right_children":[2,4,6,8,10,12,14,16,18,20,22,24,26,28,30,-1,-1,-1,-1,-1,-1,-1,-1,-1,-1,-1,-1,-1,-1,-1,-1],"split_conditions":[1.3193577E1,3.4312073E1,4.0338802E1,1.16E1,5.7069305E1,3.456E1,4.5045048E1,8.290638E0,7.9903264E0,3.873066E1,1.83E1,3.43E1,3.5676018E1,2.0036852E1,7.999463E1,1.0705398E0,2.745092E-1,-6.859751E-1,-1.9065714E-2,3.800239E-1,8.5611254E-1,-1.3080263E-1,4.272399E-1,-5.4512918E-2,6.3628775E-1,-3.448575E-1,-1.3003278E-1,2.9581398E-1,-4.9839668E-2,9.0397537E-1,3.7630394E-1],"split_indices":[0,6,6,3,1,4,6,5,5,6,3,4,6,0,1,0,0,0,0,0,0,0,0,0,0,0,0,0,0,0,0],"split_type":[0,0,0,0,0,0,0,0,0,0,0,0,0,0,0,0,0,0,0,0,0,0,0,0,0,0,0,0,0,0,0],"sum_hessian":[2.763E3,7.79E2,1.984E3,4.02E2,3.77E2,1.371E3,6.13E2,4.4E1,3.58E2,2.67E2,1.1E2,3.66E2,1.005E3,5.14E2,9.9E1,7E0,3.7E1,1.6E1,3.42E2,2.03E2,6.4E1,5E1,6E1,3.55E2,1.1E1,4.62E2,5.43E2,2.15E2,2.99E2,3.1E1,6.8E1],"tree_param":{"num_deleted":"0","num_feature":"11","num_nodes":"31","size_leaf_vector":"1"}},{"base_weights":[-2.035478E-1,-1.5816838E0,1.7084349E1,4.652898E0,-3.937087E0,2.7311415E1,1.2694381E1,1.6836389E0,1.8785435E1,-6.093988E0,7.5966873E0,1.0736015E0,2.3502714E1,-2.4369257E1,1.4456888E1,-1.1490018E0,5.8638506E-2,-3.9360148E-1,6.4258134E-1,9.610853E-1,-1.8924831E-1,6.458819E-1,7.7989936E-2,2.0421773E-1,7.7690107E-1,-3.441545E-1,-9.352314E-1,2.6162967E-1,5.972515E-1],"categories":[],"categories_nodes":[],"categories_segments":[],"categories_sizes":[],"default_left":[0,0,0,0,0,0,0,0,0,0,0,0,0,0,0,0,0,0,0,0,0,0,0,0,0,0,0,0,0],"id":18,"left_children":[1,3,5,7,9,11,13,15,17,19,21,-1,23,25,27,-1,-1,-1,-1,-1,-1,-1,-1,-1,-1,-1,-1,-1,-1],"loss_changes":[6.647515E4,3.7964242E4,8.90198E3,2.9720258E4,4.671593E4,1.1279844E3,9.889744E3,6.434833E3,1.0617598E4,1.3120281E4,2.0552162E4,0E0,1.6223047E3,2.567539E2,4.2040703E3,0E0,0E0,0E0,0E0,0E0,0E0,0E0,0E0,0E0,0E0,0E0,0E0,0E0,0E0],"parents":[2147483647,0,0,1,1,2,2,3,3,4,4,5,5,6,6,7,7,8,8,9,9,10,10,12,12,13,13,14,14],"right_children":[2,4,6,8,10,12,14,16,18,20,22,-1,24,26,28,-1,-1,-1,-1,-1,-1,-1,-1,-1,-1,-1,-1,-1,-1],"split_conditions":[8.46E1,1.3044528E1,1.3670314E1,3.811719E1,4.2677223E1,8.993913E0,3.409933E1,2.93E1,4.14E1,9.2E0,4.8671455E0,1.0736015E0,1.16E1,3.2829163E1,8.84E1,-1.1490018E0,5.8638506E-2,-3.9360148E-1,6.4258134E-1,9.610853E-1,-1.8924831E-1,6.458819E-1,7.7989936E-2,2.0421773E-1,7.7690107E-1,-3.441545E-1,-9.352314E-1,2.6162967E-1,5.972515E-1],"split_indices":[2,0,0,6,6,5,6,2,2,3,7,0,3,6,2,0,0,0,0,0,0,0,0,0,0,0,0,0,0],"split_type":[0,0,0,0,0,0,0,0,0,0,0,0,0,0,0,0,0,0,0,0,0,0,0,0,0,0,0,0,0],"sum_hessian":[2.788E3,2.583E3,2.05E2,7.08E2,1.875E3,6E1,1.45E2,5.86E2,1.22E2,1.58E3,2.95E2,1.6E1,4.4E1,6E0,1.39E2,3E0,5.83E2,9E0,1.13E2,8E0,1.572E3,7.7E1,2.18E2,6E0,3.8E1,3E0,3E0,6.9E1,7E1],"tree_param":{"num_deleted":"0","num_feature":"11","num_nodes":"29","size_leaf_vector":"1"}},{"base_weights":[-1.7416272E-1,-1.533677E0,1.4941547E1,-2.3652387E0,1.9262526E1,8.891541E0,2.2387226E1,4.2283254E0,-5.10262E0,-3.4127076E0,2.308236E1,-1.6290419E1,1.1398309E1,2.8798122E1,1.5411662E1,-3.2602355E-2,3.755068E-1,-2.108149E-1,5.965088E-3,-5.3982615E-1,4.7467384E-1,-2.811261E-1,7.4466467E-1,1.4807527E-1,-7.1742797E-1,8.2144016E-1,2.3461671E-1,4.0718788E-1,9.500742E-1,5.6771564E-1,1.10687144E-1],"categories":[],"categories_nodes":[],"categories_segments":[],"categories_sizes":[],"default_left":[0,0,0,0,0,0,0,0,0,0,0,0,0,0,0,0,0,0,0,0,0,0,0,0,0,0,0,0,0,0,0],"id":19,"left_children":[1,3,5,7,9,11,13,15,17,19,21,23,25,27,29,-1,-1,-1,-1,-1,-1,-1,-1,-1,-1,-1,-1,-1,-1,-1,-1],"loss_changes":[5.702868E4,4.407436E4,1.011657E4,4.4223816E4,8.567102E3,8.2657295E3,4.117574E3,3.168866E4,1.766259E4,4.4918765E3,4.975422E3,2.0599463E3,6.4763115E3,1.8431758E3,2.0298613E3,0E0,0E0,0E0,0E0,0E0,0E0,0E0,0E0,0E0,0E0,0E0,0E0,0E0,0E0,0E0,0E0],"parents":[2147483647,0,0,1,1,2,2,3,3,4,4,5,5,6,6,7,7,8,8,9,9,10,10,11,11,12,12,13,13,14,14],"right_children":[2,4,6,8,10,12,14,16,18,20,22,24,26,28,30,-1,-1,-1,-1,-1,-1,-1,-1,-1,-1,-1,-1,-1,-1,-1,-1],"split_conditions":[8.35E1,4.5045048E1,8.84E1,1.3193577E1,5.04E1,3.409933E1,1.6592974E1,3.53795E1,4.0338802E1,2.75E1,1.17E1,8.601311E0,5.4749165E1,1.72E1,9.51E1,-3.2602355E-2,3.755068E-1,-2.108149E-1,5.965088E-3,-5.3982615E-1,4.7467384E-1,-2.811261E-1,7.4466467E-1,1.4807527E-1,-7.1742797E-1,8.2144016E-1,2.3461671E-1,4.0718788E-1,9.500742E-1,5.6771564E-1,1.10687144E-1],"split_indices":[2,6,2,0,2,6,0,6,6,3,3,0,1,3,2,0,0,0,0,0,0,0,0,0,0,0,0,0,0,0,0],"split_type":[0,0,0,0,0,0,0,0,0,0,0,0,0,0,0,0,0,0,0,0,0,0,0,0,0,0,0,0,0,0,0],"sum_hessian":[2.773E3,2.545E3,2.28E2,2.448E3,9.7E1,1.27E2,1.01E2,7.18E2,1.73E3,1.4E1,8.3E1,1.1E1,1.16E2,5.1E1,5E1,4.38E2,2.8E2,1.269E3,4.61E2,8E0,6E0,4E0,7.9E1,3E0,8E0,2E1,9.6E1,9E0,4.2E1,3.8E1,1.2E1],"tree_param":{"num_deleted":"0","num_feature":"11","num_nodes":"31","size_leaf_vector":"1"}},{"base_weights":[-2.4850243E-1,5.10785E0,-3.3690982E0,1.9459312E0,1.6103935E1,-4.3642216E0,1.4324887E1,4.891396E0,-2.8058991E0,1.7717047E1,-1.4542908E1,-8.010116E0,-1.6271372E0,1.5917104E1,-7.64378E-1,4.3265704E-2,3.484782E-1,-8.4438735E-1,-5.564153E-2,3.5459253E-1,7.084232E-1,-6.983203E-1,-5.7867393E-2,-1.8766998E-1,-4.5513615E-1,1.9732036E-1,-8.823202E-2,-3.6788967E-1,5.309422E-1],"categories":[],"categories_nodes":[],"categories_segments":[],"categories_sizes":[],"default_left":[0,0,0,0,0,0,0,0,0,0,0,0,0,0,0,0,0,0,0,0,0,0,0,0,0,0,0,0,0],"id":20,"left_children":[1,3,5,7,9,11,13,15,17,19,21,23,25,27,-1,-1,-1,-1,-1,-1,-1,-1,-1,-1,-1,-1,-1,-1,-1],"loss_changes":[4.658523E4,3.5641383E4,3.106967E4,1.1182812E4,1.1578676E4,1.6632139E4,6.3629785E3,1.1418056E4,7.3233975E3,7.302211E3,1.2772139E3,8.8881875E3,1.0303576E4,4.784133E3,0E0,0E0,0E0,0E0,0E0,0E0,0E0,0E0,0E0,0E0,0E0,0E0,0E0,0E0,0E0],"parents":[2147483647,0,0,1,1,2,2,3,3,4,4,5,5,6,6,7,7,8,8,9,9,10,10,11,11,12,12,13,13],"right_children":[2,4,6,8,10,12,14,16,18,20,22,24,26,28,-1,-1,-1,-1,-1,-1,-1,-1,-1,-1,-1,-1,-1,-1,-1],"split_conditions":[4.5247455E0,3.830063E1,4.5045048E1,1.1109837E1,2.2411903E1,3.7040894E1,5.7347383E0,3.437321E1,2.7857168E1,4.0085228E1,2.3016287E1,1.2126219E1,4.709826E0,2.815E1,-7.64378E-1,4.3265704E-2,3.484782E-1,-8.4438735E-1,-5.564153E-2,3.5459253E-1,7.084232E-1,-6.983203E-1,-5.7867393E-2,-1.8766998E-1,-4.5513615E-1,1.9732036E-1,-8.823202E-2,-3.6788967E-1,5.309422E-1],"split_indices":[7,6,6,0,0,6,7,6,6,6,0,5,7,4,0,0,0,0,0,0,0,0,0,0,0,0,0,0,0],"split_type":[0,0,0,0,0,0,0,0,0,0,0,0,0,0,0,0,0,0,0,0,0,0,0,0,0,0,0,0,0],"sum_hessian":[2.785E3,1.025E3,1.76E3,7.97E2,2.28E2,1.667E3,9.3E1,4.92E2,3.05E2,2.17E2,1.1E1,7.14E2,9.53E2,9E1,3E0,3.26E2,1.66E2,1E1,2.95E2,1.1E2,1.07E2,6E0,5E0,5.75E2,1.39E2,1.31E2,8.22E2,5E0,8.5E1],"tree_param":{"num_deleted":"0","num_feature":"11","num_nodes":"29","size_leaf_vector":"1"}},{"base_weights":[-3.151381E-1,-1.6232378E0,1.6496489E1,4.244646E0,-3.9593523E0,9.3412895E0,2.3774155E1,1.9147291E0,2.0946995E1,-7.1960616E0,2.988692E0,2.8988329E1,6.6770964E0,3.289273E1,1.9714819E1,-1.4543171E-2,2.1724224E-1,8.7319666E-1,2.5416934E-1,-1.7302743E-1,-4.5653483E-1,6.0699093E-1,1.8579476E-2,1.0786725E0,3.6128348E-1,3.8658458E-1,3.611298E-2,1.0696651E0,4.9078554E-1,6.424321E-1,2.5492775E-1],"categories":[],"categories_nodes":[],"categories_segments":[],"categories_sizes":[],"default_left":[0,0,0,0,0,0,0,0,0,0,0,0,0,0,0,0,0,0,0,0,0,0,0,0,0,0,0,0,0,0,0],"id":21,"left_children":[1,3,5,7,9,11,13,15,17,19,21,23,25,27,29,-1,-1,-1,-1,-1,-1,-1,-1,-1,-1,-1,-1,-1,-1,-1,-1],"loss_changes":[6.1228523E4,3.542469E4,1.0244617E4,2.8601393E4,4.1580812E4,5.1978223E3,3.0160508E3,8.27306E3,8.914316E3,1.4361957E4,2.4012168E4,9.8379395E2,3.1110361E3,7.4133984E2,1.1716152E3,0E0,0E0,0E0,0E0,0E0,0E0,0E0,0E0,0E0,0E0,0E0,0E0,0E0,0E0,0E0,0E0],"parents":[2147483647,0,0,1,1,2,2,3,3,4,4,5,5,6,6,7,7,8,8,9,9,10,10,11,11,12,12,13,13,14,14],"right_children":[2,4,6,8,10,12,14,16,18,20,22,24,26,28,30,-1,-1,-1,-1,-1,-1,-1,-1,-1,-1,-1,-1,-1,-1,-1,-1],"split_conditions":[8.46E1,1.3044528E1,8.84E1,3.9090046E1,4.0338802E1,9.5E0,1.4237361E1,3.53795E1,5.7069305E1,7.49E1,4.5309577E0,4.844596E0,4.4674873E0,9.51E1,9.51E1,-1.4543171E-2,2.1724224E-1,8.7319666E-1,2.5416934E-1,-1.7302743E-1,-4.5653483E-1,6.0699093E-1,1.8579476E-2,1.0786725E0,3.6128348E-1,3.8658458E-1,3.611298E-2,1.0696651E0,4.9078554E-1,6.424321E-1,2.5492775E-1],"split_indices":[2,0,2,6,6,3,0,6,1,2,7,7,7,2,2,0,0,0,0,0,0,0,0,0,0,0,0,0,0,0,0],"split_type":[0,0,0,0,0,0,0,0,0,0,0,0,0,0,0,0,0,0,0,0,0,0,0,0,0,0,0,0,0,0,0],"sum_hessian":[2.782E3,2.582E3,2E2,7.35E2,1.847E3,1.02E2,9.8E1,6.46E2,8.9E1,1.26E3,5.87E2,1.1E1,9.1E1,2.8E1,7E1,4.46E2,2E2,5.3E1,3.6E1,1.071E3,1.89E2,7E1,5.17E2,7E0,4E0,4.2E1,4.9E1,2.3E1,5E0,6E1,1E1],"tree_param":{"num_deleted":"0","num_feature":"11","num_nodes":"31","size_leaf_vector":"1"}},{"base_weights":[2.638372E-1,-9.9223536E-1,1.4642714E1,3.5316424E0,-3.5735185E0,8.603294E0,2.1595404E1,1.1391572E0,2.1497755E1,-5.268152E0,6.7874923E0,1.4077646E1,1.7781144E0,2.6292908E1,1.3850571E1,-2.2691453E-2,2.6005366E-1,-5.861848E-2,7.9411143E-1,9.124012E-1,-1.6331401E-1,3.8759857E-1,-1.3090871E-1,8.1062555E-1,2.398496E-1,-2.657395E-1,2.741181E-1,4.2086813E-1,9.501247E-1,1.9355239E-1,6.6234195E-1],"categories":[],"categories_nodes":[],"categories_segments":[],"categories_sizes":[],"default_left":[0,0,0,0,0,0,0,0,0,0,0,0,0,0,0,0,0,0,0,0,0,0,0,0,0,0,0,0,0,0,0],"id":22,"left_children":[1,3,5,7,9,11,13,15,17,19,21,23,25,27,29,-1,-1,-1,-1,-1,-1,-1,-1,-1,-1,-1,-1,-1,-1,-1,-1],"loss_changes":[5.013356E4,2.9825047E4,9.178023E3,3.986435E4,2.858526E4,4.4959434E3,3.3831133E3,1.1709662E4,1.2762922E4,8.927391E3,1.571626E4,5.0588193E3,4.385936E3,3.710832E3,2.3533828E3,0E0,0E0,0E0,0E0,0E0,0E0,0E0,0E0,0E0,0E0,0E0,0E0,0E0,0E0,0E0,0E0],"parents":[2147483647,0,0,1,1,2,2,3,3,4,4,5,5,6,6,7,7,8,8,9,9,10,10,11,11,12,12,13,13,14,14],"right_children":[2,4,6,8,10,12,14,16,18,20,22,24,26,28,30,-1,-1,-1,-1,-1,-1,-1,-1,-1,-1,-1,-1,-1,-1,-1,-1],"split_conditions":[8.43E1,4.5247455E0,8.84E1,4.0153618E1,4.2920155E1,8.74E1,2.33E1,2.24E1,1.21E1,9.2E0,5.3813696E0,1.34E1,1.95E1,1.72E1,2.46E1,-2.2691453E-2,2.6005366E-1,-5.861848E-2,7.9411143E-1,9.124012E-1,-1.6331401E-1,3.8759857E-1,-1.3090871E-1,8.1062555E-1,2.398496E-1,-2.657395E-1,2.741181E-1,4.2086813E-1,9.501247E-1,1.9355239E-1,6.6234195E-1],"split_indices":[2,7,2,6,6,2,3,3,3,3,7,3,3,3,3,0,0,0,0,0,0,0,0,0,0,0,0,0,0,0,0],"split_type":[0,0,0,0,0,0,0,0,0,0,0,0,0,0,0,0,0,0,0,0,0,0,0,0,0,0,0,0,0,0,0],"sum_hessian":[2.774E3,2.552E3,2.22E2,9.27E2,1.625E3,1.2E2,1.02E2,8.19E2,1.08E2,1.397E3,2.28E2,6.6E1,5.4E1,6.2E1,4E1,6.55E2,1.64E2,1.9E1,8.9E1,6E0,1.391E3,1.47E2,8.1E1,2E1,4.6E1,2.2E1,3.2E1,2E1,4.2E1,2.2E1,1.8E1],"tree_param":{"num_deleted":"0","num_feature":"11","num_nodes":"31","size_leaf_vector":"1"}},{"base_weights":[2.1420427E-1,-1.375607E0,1.0509355E1,3.6556816E0,-4.1549263E0,3.7522774E1,7.6266785E0,9.961536E-1,1.1425179E1,-2.9846044E0,-1.4661356E1,1.1787461E0,4.064931E-1,2.5623524E0,1.980608E1,-1.5982126E-1,8.354412E-2,3.9932197E-1,-5.930277E-1,-1.0595836E-1,7.904929E-1,-7.7167994E-1,-2.7756363E-1,3.2579005E-1,-1.00719124E-1,7.250177E-1,3.882238E-1],"categories":[],"categories_nodes":[],"categories_segments":[],"categories_sizes":[],"default_left":[0,0,0,0,0,0,0,0,0,0,0,0,0,0,0,0,0,0,0,0,0,0,0,0,0,0,0],"id":23,"left_children":[1,3,5,7,9,11,13,15,17,19,21,-1,-1,23,25,-1,-1,-1,-1,-1,-1,-1,-1,-1,-1,-1,-1],"loss_changes":[4.60067E4,3.4065145E4,2.89933E4,1.790361E4,1.9248514E4,9.9410156E2,2.0982283E4,7.332783E3,1.3261385E4,2.2780047E4,9.155824E3,0E0,0E0,1.1922836E4,2.681332E3,0E0,0E0,0E0,0E0,0E0,0E0,0E0,0E0,0E0,0E0,0E0,0E0],"parents":[2147483647,0,0,1,1,2,2,3,3,4,4,5,5,6,6,7,7,8,8,9,9,10,10,13,13,14,14],"right_children":[2,4,6,8,10,12,14,16,18,20,22,-1,-1,24,26,-1,-1,-1,-1,-1,-1,-1,-1,-1,-1,-1,-1],"split_conditions":[7.92E1,4.5247455E0,1.1E1,2.06E1,7.49E1,2.2411903E1,8.84E1,5.6E1,7.81E1,7.43E1,7.58E1,1.1787461E0,4.064931E-1,1.9E1,2.33E1,-1.5982126E-1,8.354412E-2,3.9932197E-1,-5.930277E-1,-1.0595836E-1,7.904929E-1,-7.7167994E-1,-2.7756363E-1,3.2579005E-1,-1.00719124E-1,7.250177E-1,3.882238E-1],"split_indices":[2,7,3,3,2,0,2,2,2,2,2,0,0,3,3,0,0,0,0,0,0,0,0,0,0,0,0],"split_type":[0,0,0,0,0,0,0,0,0,0,0,0,0,0,0,0,0,0,0,0,0,0,0,0,0,0,0],"sum_hessian":[2.809E3,2.434E3,3.75E2,8.66E2,1.568E3,3.5E1,3.4E2,6.46E2,2.2E2,1.412E3,1.56E2,3.2E1,3E0,2.41E2,9.9E1,1.42E2,5.04E2,2.08E2,1.2E1,1.387E3,2.5E1,5E1,1.06E2,1E2,1.41E2,5.9E1,4E1],"tree_param":{"num_deleted":"0","num_feature":"11","num_nodes":"27","size_leaf_vector":"1"}},{"base_weights":[1.2328406E-1,-1.0259197E0,1.4221061E1,2.2341754E0,-5.04269E0,2.3172E1,1.0199956E1,1.0091238E0,2.727676E1,-5.8116555E0,1.4870971E1,1.6478718E1,2.7920145E1,-1.5114883E1,1.2374609E1,1.3943638E-1,-7.637971E-2,9.6930474E-1,3.937558E-1,6.2946934E-1,-1.8003711E-1,6.193698E-1,8.145516E-2,7.488342E-1,1.68224E-1,1.0390271E0,6.245148E-1,-7.321791E-1,2.870636E-1,4.108409E-1,-6.892565E-2],"categories":[],"categories_nodes":[],"categories_segments":[],"categories_sizes":[],"default_left":[0,0,0,0,0,0,0,0,0,0,0,0,0,0,0,0,0,0,0,0,0,0,0,0,0,0,0,0,0,0,0],"id":24,"left_children":[1,3,5,7,9,11,13,15,17,19,21,23,25,27,29,-1,-1,-1,-1,-1,-1,-1,-1,-1,-1,-1,-1,-1,-1,-1,-1],"loss_changes":[4.4924363E4,3.358698E4,7.2861133E3,4.341318E4,1.768096E4,1.573875E3,8.224484E3,1.748863E4,4.277129E3,5.7490938E3,2.9623691E3,2.5342534E3,9.9585547E2,2.9855935E3,2.646213E3,0E0,0E0,0E0,0E0,0E0,0E0,0E0,0E0,0E0,0E0,0E0,0E0,0E0,0E0,0E0,0E0],"parents":[2147483647,0,0,1,1,2,2,3,3,4,4,5,5,6,6,7,7,8,8,9,9,10,10,11,11,12,12,13,13,14,14],"right_children":[2,4,6,8,10,12,14,16,18,20,22,24,26,28,30,-1,-1,-1,-1,-1,-1,-1,-1,-1,-1,-1,-1,-1,-1,-1,-1],"split_conditions":[8.43E1,4.87361E0,1.3670314E1,4.3343235E1,4.5941864E1,1.95E1,3.4916782E1,1.3044528E1,5.386E1,9.6E0,1.2952507E1,8.74E1,2.33E1,4.7279778E0,4.834E1,1.3943638E-1,-7.637971E-2,9.6930474E-1,3.937558E-1,6.2946934E-1,-1.8003711E-1,6.193698E-1,8.145516E-2,7.488342E-1,1.68224E-1,1.0390271E0,6.245148E-1,-7.321791E-1,2.870636E-1,4.108409E-1,-6.892565E-2],"split_indices":[2,7,0,6,6,3,6,0,4,3,5,2,3,7,4,0,0,0,0,0,0,0,0,0,0,0,0,0,0,0,0],"split_type":[0,0,0,0,0,0,0,0,0,0,0,0,0,0,0,0,0,0,0,0,0,0,0,0,0,0,0,0,0,0,0],"sum_hessian":[2.771E3,2.563E3,2.08E2,1.415E3,1.148E3,6.3E1,1.45E2,1.35E3,6.5E1,1.106E3,4.2E1,2.8E1,3.5E1,1.1E1,1.34E2,6.67E2,6.83E2,4.7E1,1.8E1,7E0,1.099E3,2.8E1,1.4E1,1.5E1,1.3E1,1.6E1,1.9E1,8E0,3E0,1.23E2,1.1E1],"tree_param":{"num_deleted":"0","num_feature":"11","num_nodes":"31","size_leaf_vector":"1"}},{"base_weights":[2.7561584E-3,-1.2872708E0,1.4231963E1,-2.000566E0,1.6457241E1,2.0341787E1,8.359946E0,1.8606831E0,-5.400122E0,2.2460394E1,-3.830318E-1,1.3161868E1,2.5633259E1,-1.8400976E1,9.929828E0,-5.8145776E-2,3.9052743E-1,6.990622E-1,-1.6917051E-1,7.643347E-1,1.9721891E-1,-9.2685E-1,2.9417595E-1,6.0604227E-1,9.852618E-2,9.694186E-1,5.636435E-1,-1.6245173E-2,-9.4980603E-1,4.071616E-2,3.624486E-1],"categories":[],"categories_nodes":[],"categories_segments":[],"categories_sizes":[],"default_left":[0,0,0,0,0,0,0,0,0,0,0,0,0,0,0,0,0,0,0,0,0,0,0,0,0,0,0,0,0,0,0],"id":25,"left_children":[1,3,5,7,9,11,13,15,17,19,21,23,25,27,29,-1,-1,-1,-1,-1,-1,-1,-1,-1,-1,-1,-1,-1,-1,-1,-1],"loss_changes":[5.123173E4,3.2422377E4,8.1534023E3,3.231445E4,1.001698E4,3.955754E3,5.2240967E3,4.88936E4,9.106945E3,3.3318477E3,8.696803E3,3.4103652E3,2.319621E3,1.6404751E3,2.086504E3,0E0,0E0,0E0,0E0,0E0,0E0,0E0,0E0,0E0,0E0,0E0,0E0,0E0,0E0,0E0,0E0],"parents":[2147483647,0,0,1,1,2,2,3,3,4,4,5,5,6,6,7,7,8,8,9,9,10,10,11,11,12,12,13,13,14,14],"right_children":[2,4,6,8,10,12,14,16,18,20,22,24,26,28,30,-1,-1,-1,-1,-1,-1,-1,-1,-1,-1,-1,-1,-1,-1,-1,-1],"split_conditions":[8.35E1,4.5045048E1,1.6592974E1,4.7054834E0,5.4227443E0,1.95E1,3.4916782E1,3.830063E1,9.6E0,1.2904848E1,2.0763279E1,8.74E1,2.33E1,4.5133047E0,8.51E1,-5.8145776E-2,3.9052743E-1,6.990622E-1,-1.6917051E-1,7.643347E-1,1.9721891E-1,-9.2685E-1,2.9417595E-1,6.0604227E-1,9.852618E-2,9.694186E-1,5.636435E-1,-1.6245173E-2,-9.4980603E-1,4.071616E-2,3.624486E-1],"split_indices":[2,6,0,7,7,3,6,6,3,5,0,2,3,7,2,0,0,0,0,0,0,0,0,0,0,0,0,0,0,0,0],"split_type":[0,0,0,0,0,0,0,0,0,0,0,0,0,0,0,0,0,0,0,0,0,0,0,0,0,0,0,0,0,0,0],"sum_hessian":[2.789E3,2.558E3,2.31E2,2.46E3,9.8E1,1.12E2,1.19E2,1.152E3,1.308E3,7.2E1,2.6E1,4.9E1,6.3E1,6E0,1.13E2,8.6E2,2.92E2,1E1,1.298E3,6E1,1.2E1,6E0,2E1,2.8E1,2.1E1,3E1,3.3E1,3E0,3E0,2.3E1,9E1],"tree_param":{"num_deleted":"0","num_feature":"11","num_nodes":"31","size_leaf_vector":"1"}},{"base_weights":[1.5437743E-1,-1.3257364E0,9.659318E0,-1.748816E-1,-1.1629954E1,3.6644886E1,7.01172E0,-6.87232E-1,2.6868784E1,-1.5090543E0,-1.6221216E1,1.1584492E0,5.366818E-1,2.0819569E0,1.8822332E1,-7.96021E-2,1.8051739E-1,1.1201733E0,4.9814758E-1,1.4428315E-1,-4.6198544E-1,-7.620266E-1,-3.7048936E-1,2.9317728E-1,-1.00459024E-1,7.23079E-1,3.286984E-1],"categories":[],"categories_nodes":[],"categories_segments":[],"categories_sizes":[],"default_left":[0,0,0,0,0,0,0,0,0,0,0,0,0,0,0,0,0,0,0,0,0,0,0,0,0,0,0],"id":26,"left_children":[1,3,5,7,9,11,13,15,17,19,21,-1,-1,23,25,-1,-1,-1,-1,-1,-1,-1,-1,-1,-1,-1,-1],"loss_changes":[3.884157E4,2.83283E4,2.6321316E4,2.9808508E4,1.1127773E4,5.285508E2,1.975681E4,2.7843492E4,3.678627E3,6.7443384E3,5.550367E3,0E0,0E0,1.0097996E4,3.889254E3,0E0,0E0,0E0,0E0,0E0,0E0,0E0,0E0,0E0,0E0,0E0,0E0],"parents":[2147483647,0,0,1,1,2,2,3,3,4,4,5,5,6,6,7,7,8,8,9,9,10,10,13,13,14,14],"right_children":[2,4,6,8,10,12,14,16,18,20,22,-1,-1,24,26,-1,-1,-1,-1,-1,-1,-1,-1,-1,-1,-1,-1],"split_conditions":[7.92E1,7.49E1,1.1E1,7.43E1,1.4589898E1,2.1829079E1,8.84E1,2.26E1,7.48E1,1.9E1,7.58E1,1.1584492E0,5.366818E-1,1.9E1,2.33E1,-7.96021E-2,1.8051739E-1,1.1201733E0,4.9814758E-1,1.4428315E-1,-4.6198544E-1,-7.620266E-1,-3.7048936E-1,2.9317728E-1,-1.00459024E-1,7.23079E-1,3.286984E-1],"split_indices":[2,2,3,2,0,0,2,3,2,3,2,0,0,3,3,0,0,0,0,0,0,0,0,0,0,0,0],"split_type":[0,0,0,0,0,0,0,0,0,0,0,0,0,0,0,0,0,0,0,0,0,0,0,0,0,0,0],"sum_hessian":[2.759E3,2.388E3,3.71E2,2.149E3,2.39E2,3.2E1,3.39E2,2.11E3,3.9E1,7.5E1,1.64E2,2.8E1,4E0,2.4E2,9.9E1,1.632E3,4.78E2,1.8E1,2.1E1,5.2E1,2.3E1,4.7E1,1.17E2,9.9E1,1.41E2,5.8E1,4.1E1],"tree_param":{"num_deleted":"0","num_feature":"11","num_nodes":"27","size_leaf_vector":"1"}},{"base_weights":[3.0473107E-1,-4.1046557E-1,1.9303535E1,-1.0275322E0,1.5217888E1,2.710861E1,1.5513876E1,5.2004614E0,-2.9275064E0,-8.675771E0,1.8464039E1,2.9345673E1,4.47806E-1,-2.563535E-1,1.6700966E1,-1.9356567E-2,3.8592866E-1,-2.0058756E-1,-2.3775207E-2,-5.252898E-1,2.6881146E-1,7.582266E-1,1.535384E-1,4.827164E-1,9.520631E-1,5.548316E-1,2.037136E-1],"categories":[],"categories_nodes":[],"categories_segments":[],"categories_sizes":[],"default_left":[0,0,0,0,0,0,0,0,0,0,0,0,0,0,0,0,0,0,0,0,0,0,0,0,0,0,0],"id":27,"left_children":[1,3,5,7,9,11,13,15,17,19,21,23,-1,-1,25,-1,-1,-1,-1,-1,-1,-1,-1,-1,-1,-1,-1],"loss_changes":[3.820346E4,2.6150162E4,2.5964531E3,3.0875758E4,8.149119E3,4.3400195E2,2.1704844E3,2.7336473E4,1.6036518E4,2.1822385E3,8.141574E3,3.1295117E2,0E0,0E0,1.0830293E3,0E0,0E0,0E0,0E0,0E0,0E0,0E0,0E0,0E0,0E0,0E0,0E0],"parents":[2147483647,0,0,1,1,2,2,3,3,4,4,5,5,6,6,7,7,8,8,9,9,10,10,11,11,14,14],"right_children":[2,4,6,8,10,12,14,16,18,20,22,24,-1,-1,26,-1,-1,-1,-1,-1,-1,-1,-1,-1,-1,-1,-1],"split_conditions":[8.84E1,4.5045048E1,1.4237361E1,1.1109837E1,5.04E1,9.51E1,1.4589898E1,3.437321E1,3.572115E1,2.75E1,8.992924E1,1.72E1,4.47806E-1,-2.563535E-1,9.51E1,-1.9356567E-2,3.8592866E-1,-2.0058756E-1,-2.3775207E-2,-5.252898E-1,2.6881146E-1,7.582266E-1,1.535384E-1,4.827164E-1,9.520631E-1,5.548316E-1,2.037136E-1],"split_indices":[2,6,0,0,2,2,0,6,6,3,1,3,0,0,2,0,0,0,0,0,0,0,0,0,0,0,0],"split_type":[0,0,0,0,0,0,0,0,0,0,0,0,0,0,0,0,0,0,0,0,0,0,0,0,0,0,0],"sum_hessian":[2.81E3,2.709E3,1.01E2,2.607E3,1.02E2,3.1E1,7E1,6.09E2,1.998E3,1.2E1,9E1,2.5E1,6E0,3E0,6.7E1,3.46E2,2.63E2,7.23E2,1.275E3,8E0,4E0,5.9E1,3.1E1,5E0,2E1,5.6E1,1.1E1],"tree_param":{"num_deleted":"0","num_feature":"11","num_nodes":"27","size_leaf_vector":"1"}},{"base_weights":[1.5160282E-2,4.1084275E0,-2.3692758E0,7.485553E-1,1.3826117E1,-3.186927E0,1.4749253E1,2.658229E1,3.3310965E-1,1.5336533E1,-1.628389E1,2.3218576E1,-3.4078374E0,2.0245083E1,-6.5998423E-1,2.5228214E-2,1.0520791E0,-3.5213385E-2,2.2923821E-1,3.3009917E-1,6.4242053E-1,-8.704878E-1,-2.2203086E-1,4.519523E-1,8.7659764E-1,-1.4635707E-1,2.2639852E-2,8.945549E-1,4.7968286E-1,-8.303511E-1,4.1381463E-1],"categories":[],"categories_nodes":[],"categories_segments":[],"categories_sizes":[],"default_left":[0,0,0,0,0,0,0,0,0,0,0,0,0,0,0,0,0,0,0,0,0,0,0,0,0,0,0,0,0,0,0],"id":28,"left_children":[1,3,5,7,9,11,13,15,17,19,21,23,25,27,29,-1,-1,-1,-1,-1,-1,-1,-1,-1,-1,-1,-1,-1,-1,-1,-1],"loss_changes":[2.7045305E4,3.3292844E4,2.455573E4,8.1371235E3,1.2165137E4,9.832316E3,6.788285E3,2.5921143E3,8.246389E3,6.3481562E3,1.2555481E3,2.4484717E2,1.0159945E4,1.9269453E3,8.973197E3,0E0,0E0,0E0,0E0,0E0,0E0,0E0,0E0,0E0,0E0,0E0,0E0,0E0,0E0,0E0,0E0],"parents":[2147483647,0,0,1,1,2,2,3,3,4,4,5,5,6,6,7,7,8,8,9,9,10,10,11,11,12,12,13,13,14,14],"right_children":[2,4,6,8,10,12,14,16,18,20,22,24,26,28,30,-1,-1,-1,-1,-1,-1,-1,-1,-1,-1,-1,-1,-1,-1,-1,-1],"split_conditions":[4.5247455E0,3.780513E1,4.5209248E1,9.6E0,2.2411903E1,9.5E0,1.2877795E1,3.252695E1,2.39E1,4.0153618E1,1.14E1,4.0338802E1,2.26E1,3.854E1,4.381E1,2.5228214E-2,1.0520791E0,-3.5213385E-2,2.2923821E-1,3.3009917E-1,6.4242053E-1,-8.704878E-1,-2.2203086E-1,4.519523E-1,8.7659764E-1,-1.4635707E-1,2.2639852E-2,8.945549E-1,4.7968286E-1,-8.303511E-1,4.1381463E-1],"split_indices":[7,6,6,3,0,3,5,6,3,6,3,6,3,4,4,0,0,0,0,0,0,0,0,0,0,0,0,0,0,0,0],"split_type":[0,0,0,0,0,0,0,0,0,0,0,0,0,0,0,0,0,0,0,0,0,0,0,0,0,0,0,0,0,0,0],"sum_hessian":[2.769E3,1.019E3,1.75E3,7.58E2,2.61E2,1.671E3,7.9E1,1.1E1,7.47E2,2.49E2,1.2E1,1.3E1,1.658E3,5.8E1,2.1E1,3E0,8E0,6.2E2,1.27E2,1.47E2,1.02E2,4E0,8E0,7E0,6E0,1.225E3,4.33E2,1.6E1,4.2E1,7E0,1.4E1],"tree_param":{"num_deleted":"0","num_feature":"11","num_nodes":"31","size_leaf_vector":"1"}},{"base_weights":[-7.697235E-2,5.3245683E0,-2.2185972E0,-1.268708E-1,1.1221064E1,-4.8102155E0,3.4172702E0,1.2378275E1,-1.2125101E0,1.5429655E1,4.665025E0,-7.048218E0,-2.8819168E0,1.1507514E1,-6.6496986E-1,-4.381404E-1,6.4791024E-1,-6.2108105E-1,-1.064471E-2,3.6525062E-1,7.761647E-1,-2.2215559E-1,3.7716427E-1,-1.7192593E-1,-4.7442698E-1,1.3455283E-2,-1.4890513E-1,2.3738995E-1,6.4676976E-1,-7.896872E-2,4.4886512E-1],"categories":[],"categories_nodes":[],"categories_segments":[],"categories_sizes":[],"default_left":[0,0,0,0,0,0,0,0,0,0,0,0,0,0,0,0,0,0,0,0,0,0,0,0,0,0,0,0,0,0,0],"id":29,"left_children":[1,3,5,7,9,11,13,15,17,19,21,23,25,27,29,-1,-1,-1,-1,-1,-1,-1,-1,-1,-1,-1,-1,-1,-1,-1,-1],"loss_changes":[3.2228898E4,2.5427627E4,2.9155441E4,5.6083535E3,1.0412867E4,5.8790254E3,2.0781203E4,8.524122E3,6.344914E3,7.5358945E3,1.4409186E4,7.207668E3,5.104601E3,7.452873E3,1.2920953E4,0E0,0E0,0E0,0E0,0E0,0E0,0E0,0E0,0E0,0E0,0E0,0E0,0E0,0E0,0E0,0E0],"parents":[2147483647,0,0,1,1,2,2,3,3,4,4,5,5,6,6,7,7,8,8,9,9,10,10,11,11,12,12,13,13,14,14],"right_children":[2,4,6,8,10,12,14,16,18,20,22,24,26,28,30,-1,-1,-1,-1,-1,-1,-1,-1,-1,-1,-1,-1,-1,-1,-1,-1],"split_conditions":[1.3193577E1,3.437321E1,4.029793E1,1.14E1,5.4749165E1,3.5676018E1,7.726646E1,2.8501474E1,7.9903264E0,3.8887913E1,1.68E1,1.2146954E1,4.8318906E0,4.3343235E1,4.5941864E1,-4.381404E-1,6.4791024E-1,-6.2108105E-1,-1.064471E-2,3.6525062E-1,7.761647E-1,-2.2215559E-1,3.7716427E-1,-1.7192593E-1,-4.7442698E-1,1.3455283E-2,-1.4890513E-1,2.3738995E-1,6.4676976E-1,-7.896872E-2,4.4886512E-1],"split_indices":[0,6,6,3,1,6,1,6,5,6,3,5,7,6,6,0,0,0,0,0,0,0,0,0,0,0,0,0,0,0,0],"split_type":[0,0,0,0,0,0,0,0,0,0,0,0,0,0,0,0,0,0,0,0,0,0,0,0,0,0,0,0,0,0,0],"sum_hessian":[2.784E3,7.9E2,1.994E3,4.11E2,3.79E2,1.366E3,6.28E2,3.2E1,3.79E2,2.3E2,1.49E2,6.31E2,7.35E2,2.1E2,4.18E2,8E0,2.4E1,1.5E1,3.64E2,1.77E2,5.3E1,5.9E1,9E1,5.5E2,8.1E1,2.83E2,4.52E2,1.56E2,5.4E1,3.72E2,4.6E1],"tree_param":{"num_deleted":"0","num_feature":"11","num_nodes":"31","size_leaf_vector":"1"}},{"base_weights":[-1.2350262E-1,-1.2785313E0,1.2902915E1,3.073577E0,-3.7426128E0,7.9668765E0,1.8664125E1,-4.7399873E-1,1.3687764E1,-4.8452935E0,8.349801E0,2.1424559E1,5.3276334E0,2.6333279E1,1.4562919E1,2.6779498E-3,-6.1557084E-1,4.5581856E-1,-6.3807046E-1,9.240124E-2,-1.6425441E-1,4.490093E-1,-7.2605856E-2,7.5974315E-1,1.3976906E-1,2.8631344E-1,-1.1272126E-1,8.662065E-1,4.2451984E-1,8.7113094E-1,3.7481079E-1],"categories":[],"categories_nodes":[],"categories_segments":[],"categories_sizes":[],"default_left":[0,0,0,0,0,0,0,0,0,0,0,0,0,0,0,0,0,0,0,0,0,0,0,0,0,0,0,0,0,0,0],"id":30,"left_children":[1,3,5,7,9,11,13,15,17,19,21,23,25,27,29,-1,-1,-1,-1,-1,-1,-1,-1,-1,-1,-1,-1,-1,-1,-1,-1],"loss_changes":[4.1934332E4,2.7464816E4,6.306629E3,3.487467E4,2.1841662E4,4.2901016E3,2.8875977E3,7.8488247E3,1.25383125E4,7.499574E3,9.799798E3,1.1897998E3,4.057752E3,6.7457227E2,1.7338223E3,0E0,0E0,0E0,0E0,0E0,0E0,0E0,0E0,0E0,0E0,0E0,0E0,0E0,0E0,0E0,0E0],"parents":[2147483647,0,0,1,1,2,2,3,3,4,4,5,5,6,6,7,7,8,8,9,9,10,10,11,11,12,12,13,13,14,14],"right_children":[2,4,6,8,10,12,14,16,18,20,22,24,26,28,30,-1,-1,-1,-1,-1,-1,-1,-1,-1,-1,-1,-1,-1,-1,-1,-1],"split_conditions":[8.35E1,4.5247455E0,8.84E1,3.780513E1,4.406235E1,2.419E1,4.2437754E0,8.03E1,2.2363745E1,1.3044528E1,5.3308673E0,5.273413E0,8.76E1,9.51E1,8.88E1,2.6779498E-3,-6.1557084E-1,4.5581856E-1,-6.3807046E-1,9.240124E-2,-1.6425441E-1,4.490093E-1,-7.2605856E-2,7.5974315E-1,1.3976906E-1,2.8631344E-1,-1.1272126E-1,8.662065E-1,4.2451984E-1,8.7113094E-1,3.7481079E-1],"split_indices":[2,7,2,6,6,4,7,2,0,0,7,7,2,2,2,0,0,0,0,0,0,0,0,0,0,0,0,0,0,0,0],"split_type":[0,0,0,0,0,0,0,0,0,0,0,0,0,0,0,0,0,0,0,0,0,0,0,0,0,0,0,0,0,0,0],"sum_hessian":[2.785E3,2.559E3,2.26E2,9.25E2,1.634E3,1.23E2,1.03E2,6.94E2,2.31E2,1.498E3,1.36E2,1.9E1,1.04E2,3.4E1,6.9E1,6.76E2,1.8E1,2.22E2,9E0,1.1E2,1.388E3,8.4E1,5.2E1,1.5E1,4E0,7.1E1,3.3E1,2.7E1,7E0,7E0,6.2E1],"tree_param":{"num_deleted":"0","num_feature":"11","num_nodes":"31","size_leaf_vector":"1"}},{"base_weights":[-1.0724649E-1,-7.898611E-1,1.7787575E1,-1.4015105E0,1.4191461E1,2.026037E1,7.762266E0,3.5687022E0,-3.4352448E0,1.5931225E1,-5.2379465E-1,2.1431885E1,-6.201956E-2,4.542042E-1,-2.6051972E0,2.1765025E-2,4.4473508E-1,-1.5482473E-1,3.7736475E-2,1.0095872E0,3.9490986E-1,6.797165E-1,2.3634143E-1,-3.1387123E-1,1.3129951E-1],"categories":[],"categories_nodes":[],"categories_segments":[],"categories_sizes":[],"default_left":[0,0,0,0,0,0,0,0,0,0,0,0,0,0,0,0,0,0,0,0,0,0,0,0,0],"id":31,"left_children":[1,3,5,7,9,11,13,15,17,19,-1,21,-1,-1,23,-1,-1,-1,-1,-1,-1,-1,-1,-1,-1],"loss_changes":[3.4241227E4,2.4760844E4,2.3961602E3,2.624276E4,6.115129E3,2.1891953E3,1.7222195E3,2.4119137E4,1.492368E4,4.5106367E3,0E0,1.1169258E3,0E0,0E0,5.9436633E2,0E0,0E0,0E0,0E0,0E0,0E0,0E0,0E0,0E0,0E0],"parents":[2147483647,0,0,1,1,2,2,3,3,4,4,5,5,6,6,7,7,8,8,9,9,11,11,14,14],"right_children":[2,4,6,8,10,12,14,16,18,20,-1,22,-1,-1,24,-1,-1,-1,-1,-1,-1,-1,-1,-1,-1],"split_conditions":[8.84E1,4.5045048E1,9.51E1,1.3044528E1,8.01E1,2.2794754E1,1.7022676E1,3.780513E1,4.0338802E1,1.5411624E1,-5.2379465E-1,8.891605E1,-6.201956E-2,4.542042E-1,7.602918E1,2.1765025E-2,4.4473508E-1,-1.5482473E-1,3.7736475E-2,1.0095872E0,3.9490986E-1,6.797165E-1,2.3634143E-1,-3.1387123E-1,1.3129951E-1],"split_indices":[2,6,2,0,2,0,0,6,6,0,0,1,0,0,1,0,0,0,0,0,0,0,0,0,0],"split_type":[0,0,0,0,0,0,0,0,0,0,0,0,0,0,0,0,0,0,0,0,0,0,0,0,0],"sum_hessian":[2.801E3,2.699E3,1.02E2,2.594E3,1.05E2,8.1E1,2.1E1,7.53E2,1.841E3,1E2,5E0,7.7E1,4E0,1.2E1,9E0,6.02E2,1.51E2,1.346E3,4.95E2,1.2E1,8.8E1,7E1,7E0,4E0,5E0],"tree_param":{"num_deleted":"0","num_feature":"11","num_nodes":"25","size_leaf_vector":"1"}},{"base_weights":[-1.5906195E-1,-1.197718E0,1.1890072E1,-2.0198505E0,1.070804E1,1.7516659E1,7.1417356E0,4.9852362E-1,-5.415317E0,-1.8291996E1,1.3517924E1,1.3036628E1,2.1401367E1,-7.831768E-1,8.208251E0,-8.119606E-2,1.673942E-1,7.8026366E-1,-1.6882609E-1,-1.0235039E0,-2.0903744E-1,7.522659E-1,2.738135E-1,6.038551E-1,7.86688E-2,8.60327E-1,4.2421275E-1,4.6711734E-1,1.3958946E-1],"categories":[],"categories_nodes":[],"categories_segments":[],"categories_sizes":[],"default_left":[0,0,0,0,0,0,0,0,0,0,0,0,0,0,0,0,0,0,0,0,0,0,0,0,0,0,0,0,0],"id":32,"left_children":[1,3,5,7,9,11,13,15,17,19,21,23,25,-1,27,-1,-1,-1,-1,-1,-1,-1,-1,-1,-1,-1,-1,-1,-1],"loss_changes":[3.4693047E4,2.5000887E4,5.752625E3,2.0422621E4,1.369258E4,1.4613594E3,4.504835E3,2.2359238E4,6.9285293E3,2.4502974E3,7.433965E3,3.5662188E3,2.3417559E3,0E0,3.0162065E3,0E0,0E0,0E0,0E0,0E0,0E0,0E0,0E0,0E0,0E0,0E0,0E0,0E0,0E0],"parents":[2147483647,0,0,1,1,2,2,3,3,4,4,5,5,6,6,7,7,8,8,9,9,10,10,11,11,12,12,14,14],"right_children":[2,4,6,8,10,12,14,16,18,20,22,24,26,-1,28,-1,-1,-1,-1,-1,-1,-1,-1,-1,-1,-1,-1,-1,-1],"split_conditions":[8.35E1,4.406235E1,1.6082552E1,4.87361E0,1.17E1,1.95E1,3.4312073E1,3.675302E1,9.6E0,2.934E1,4.87361E0,8.74E1,2.33E1,-7.831768E-1,3.157E1,-8.119606E-2,1.673942E-1,7.8026366E-1,-1.6882609E-1,-1.0235039E0,-2.0903744E-1,7.522659E-1,2.738135E-1,6.038551E-1,7.86688E-2,8.60327E-1,4.2421275E-1,4.6711734E-1,1.3958946E-1],"split_indices":[2,6,0,7,3,3,6,6,3,4,7,2,3,0,4,0,0,0,0,0,0,0,0,0,0,0,0,0,0],"split_type":[0,0,0,0,0,0,0,0,0,0,0,0,0,0,0,0,0,0,0,0,0,0,0,0,0,0,0,0,0],"sum_hessian":[2.77E3,2.551E3,2.19E2,2.387E3,1.64E2,9.9E1,1.2E2,1.371E3,1.016E3,1.4E1,1.5E2,4.8E1,5.1E1,3E0,1.17E2,8.41E2,5.3E2,6E0,1.01E3,5E0,9E0,4E1,1.1E2,2.8E1,2E1,2.4E1,2.7E1,3.7E1,8E1],"tree_param":{"num_deleted":"0","num_feature":"11","num_nodes":"29","size_leaf_vector":"1"}},{"base_weights":[1.544899E-1,5.6255155E0,-1.9479655E0,5.6766117E-1,1.0839543E1,-3.4863918E0,7.869347E0,1.677421E1,-6.5700465E-1,7.949598E0,1.817811E1,2.0964638E1,-3.765274E0,2.2191061E1,2.609859E0,6.5036035E-1,-5.421681E-1,-4.2987743E-1,2.4226902E-3,3.079059E-1,-1.2778533E-1,7.6180637E-1,2.975791E-1,2.3588888E-1,7.8054005E-1,-1.9224477E-1,-6.269451E-2,8.184403E-1,1.8060493E-1,1.2948943E-2,5.891427E-1],"categories":[],"categories_nodes":[],"categories_segments":[],"categories_sizes":[],"default_left":[0,0,0,0,0,0,0,0,0,0,0,0,0,0,0,0,0,0,0,0,0,0,0,0,0,0,0,0,0,0,0],"id":33,"left_children":[1,3,5,7,9,11,13,15,17,19,21,23,25,27,29,-1,-1,-1,-1,-1,-1,-1,-1,-1,-1,-1,-1,-1,-1,-1,-1],"loss_changes":[3.2402246E4,2.0616588E4,3.0762473E4,7.9103687E3,8.0205938E3,1.2080309E4,2.0731752E4,5.17708E3,3.743378E3,7.8975137E3,6.183926E3,1.1195723E3,7.695826E3,5.9270312E3,7.5210703E3,0E0,0E0,0E0,0E0,0E0,0E0,0E0,0E0,0E0,0E0,0E0,0E0,0E0,0E0,0E0,0E0],"parents":[2147483647,0,0,1,1,2,2,3,3,4,4,5,5,6,6,7,7,8,8,9,9,10,10,11,11,12,12,13,13,14,14],"right_children":[2,4,6,8,10,12,14,16,18,20,22,24,26,28,30,-1,-1,-1,-1,-1,-1,-1,-1,-1,-1,-1,-1,-1,-1,-1,-1],"split_conditions":[1.3044528E1,3.424547E1,4.2920155E1,2.664E1,3.876803E1,9.6E0,4.8671455E0,3.3100307E1,2.616173E1,5.544E1,4.177024E0,2.09E1,3.5902378E1,5.386E1,4.7179604E1,6.5036035E-1,-5.421681E-1,-4.2987743E-1,2.4226902E-3,3.079059E-1,-1.2778533E-1,7.6180637E-1,2.975791E-1,2.3588888E-1,7.8054005E-1,-1.9224477E-1,-6.269451E-2,8.184403E-1,1.8060493E-1,1.2948943E-2,5.891427E-1],"split_indices":[0,6,6,4,6,3,7,6,6,4,7,4,6,4,6,0,0,0,0,0,0,0,0,0,0,0,0,0,0,0,0],"split_type":[0,0,0,0,0,0,0,0,0,0,0,0,0,0,0,0,0,0,0,0,0,0,0,0,0,0,0,0,0,0,0],"sum_hessian":[2.815E3,7.81E2,2.034E3,3.97E2,3.84E2,1.759E3,2.75E2,2.7E1,3.7E2,2.77E2,1.07E2,1.9E1,1.74E3,7.3E1,2.02E2,2.4E1,3E0,1.8E1,3.52E2,2.33E2,4.4E1,5.6E1,5.1E1,6E0,1.3E1,6.74E2,1.066E3,5.5E1,1.8E1,1.8E2,2.2E1],"tree_param":{"num_deleted":"0","num_feature":"11","num_nodes":"31","size_leaf_vector":"1"}},{"base_weights":[-4.220002E-2,5.177398E0,-2.0890296E0,1.39296E0,1.0661683E1,-4.2850285E0,2.7017565E0,2.087213E0,-1.5123189E1,5.6950555E0,1.7587288E1,-3.6104608E-1,-5.701021E0,2.542447E1,1.4894167E0,-4.4812757E-1,8.493472E-2,-6.585569E-1,2.5162718E-1,3.625631E-1,-9.48872E-2,6.644611E-1,2.4220882E-1,-3.901633E-2,7.596677E-1,-4.1900507E-1,-1.407011E-1,2.0487954E-1,9.1073817E-1,-3.774249E-2,2.195507E-1],"categories":[],"categories_nodes":[],"categories_segments":[],"categories_sizes":[],"default_left":[0,0,0,0,0,0,0,0,0,0,0,0,0,0,0,0,0,0,0,0,0,0,0,0,0,0,0,0,0,0,0],"id":34,"left_children":[1,3,5,7,9,11,13,15,17,19,21,23,25,27,29,-1,-1,-1,-1,-1,-1,-1,-1,-1,-1,-1,-1,-1,-1,-1,-1],"loss_changes":[2.9924973E4,1.6360795E4,2.1178945E4,5.397834E3,1.0975637E4,7.6656777E3,1.7399795E4,5.741767E3,3.2345376E3,1.0736713E4,5.636215E3,8.888432E3,8.408094E3,2.7283125E3,9.650244E3,0E0,0E0,0E0,0E0,0E0,0E0,0E0,0E0,0E0,0E0,0E0,0E0,0E0,0E0,0E0,0E0],"parents":[2147483647,0,0,1,1,2,2,3,3,4,4,5,5,6,6,7,7,8,8,9,9,10,10,11,11,12,12,13,13,14,14],"right_children":[2,4,6,8,10,12,14,16,18,20,22,24,26,28,30,-1,-1,-1,-1,-1,-1,-1,-1,-1,-1,-1,-1,-1,-1,-1,-1],"split_conditions":[1.3193577E1,3.53795E1,4.029793E1,1.0936003E1,1.96E1,3.456E1,1.0216927E1,7.9903264E0,6.211E1,5.4749165E1,2.57E1,3.43E1,3.1521742E1,2.732E1,2.15E1,-4.4812757E-1,8.493472E-2,-6.585569E-1,2.5162718E-1,3.625631E-1,-9.48872E-2,6.644611E-1,2.4220882E-1,-3.901633E-2,7.596677E-1,-4.1900507E-1,-1.407011E-1,2.0487954E-1,9.1073817E-1,-3.774249E-2,2.195507E-1],"split_indices":[0,6,6,5,3,4,5,5,4,1,3,4,6,4,3,0,0,0,0,0,0,0,0,0,0,0,0,0,0,0,0],"split_type":[0,0,0,0,0,0,0,0,0,0,0,0,0,0,0,0,0,0,0,0,0,0,0,0,0,0,0,0,0,0,0],"sum_hessian":[2.799E3,7.88E2,2.011E3,4.67E2,3.21E2,1.379E3,6.32E2,4.49E2,1.8E1,1.88E2,1.33E2,3.66E2,1.013E3,3.1E1,6.01E2,1.8E1,4.31E2,1.4E1,4E0,1.09E2,7.9E1,8.9E1,4.4E1,3.54E2,1.2E1,1.09E2,9.04E2,7E0,2.4E1,4.09E2,1.92E2],"tree_param":{"num_deleted":"0","num_feature":"11","num_nodes":"31","size_leaf_vector":"1"}},{"base_weights":[-2.0097705E-2,-8.980841E-1,1.0451392E1,-1.5111444E0,1.4130698E1,1.8677605E1,7.2814293E0,3.8735206E0,-3.259575E0,-9.079631E0,1.7326294E1,1.382685E1,2.4094198E1,-1.3840286E1,8.2001915E0,5.2200105E-2,6.4588463E-1,-5.8989838E-2,-2.2082993E-1,-8.3535504E-1,3.294899E-1,9.0522367E-1,4.108575E-1,-1.16076045E-1,4.894589E-1,8.164293E-1,3.3875477E-1,-6.6175E-1,-6.486499E-2,4.741041E-1,1.6651145E-1],"categories":[],"categories_nodes":[],"categories_segments":[],"categories_sizes":[],"default_left":[0,0,0,0,0,0,0,0,0,0,0,0,0,0,0,0,0,0,0,0,0,0,0,0,0,0,0,0,0,0,0],"id":35,"left_children":[1,3,5,7,9,11,13,15,17,19,21,23,25,27,29,-1,-1,-1,-1,-1,-1,-1,-1,-1,-1,-1,-1,-1,-1,-1,-1],"loss_changes":[2.5908393E4,2.3976582E4,5.54874E3,2.3539996E4,7.72274E3,1.2433262E3,3.1990205E3,2.3053824E4,9.994463E3,5.2001416E3,3.7853496E3,1.5603403E3,7.712119E2,6.241056E2,2.9948135E3,0E0,0E0,0E0,0E0,0E0,0E0,0E0,0E0,0E0,0E0,0E0,0E0,0E0,0E0,0E0,0E0],"parents":[2147483647,0,0,1,1,2,2,3,3,4,4,5,5,6,6,7,7,8,8,9,9,10,10,11,11,12,12,13,13,14,14],"right_children":[2,4,6,8,10,12,14,16,18,20,22,24,26,28,30,-1,-1,-1,-1,-1,-1,-1,-1,-1,-1,-1,-1,-1,-1,-1,-1],"split_conditions":[8.35E1,4.5045048E1,4.211542E0,1.2E1,5.04E1,8.89E1,3.3383915E1,3.9090046E1,1.2107756E1,6.089E1,4.763061E0,3.1909088E1,9.51E1,3.123E1,3.157E1,5.2200105E-2,6.4588463E-1,-5.8989838E-2,-2.2082993E-1,-8.3535504E-1,3.294899E-1,9.0522367E-1,4.108575E-1,-1.16076045E-1,4.894589E-1,8.164293E-1,3.3875477E-1,-6.6175E-1,-6.486499E-2,4.741041E-1,1.6651145E-1],"split_indices":[2,6,7,0,2,2,6,6,5,4,7,6,2,4,4,0,0,0,0,0,0,0,0,0,0,0,0,0,0,0,0],"split_type":[0,0,0,0,0,0,0,0,0,0,0,0,0,0,0,0,0,0,0,0,0,0,0,0,0,0,0,0,0,0,0],"sum_hessian":[2.816E3,2.599E3,2.17E2,2.498E3,1.01E2,5.9E1,1.58E2,6.12E2,1.886E3,1.2E1,8.9E1,3.3E1,2.6E1,6E0,1.52E2,5.47E2,6.5E1,1.435E3,4.51E2,6E0,6E0,1.8E1,7.1E1,4E0,2.9E1,2E1,6E0,3E0,3E0,3.8E1,1.14E2],"tree_param":{"num_deleted":"0","num_feature":"11","num_nodes":"31","size_leaf_vector":"1"}},{"base_weights":[3.3994398E-1,-6.921562E-1,1.1629844E1,2.4142396E0,-3.341757E0,1.6189064E1,6.932255E0,-1.0935345E0,1.1145398E1,-4.192686E0,9.530299E0,1.0243607E1,2.0718157E1,-7.6252425E-1,8.603381E0,3.468494E-2,-1.5422565E-1,-6.4327836E-2,4.1546386E-1,-9.453242E-2,-3.0188796E-1,4.291077E-1,-8.066024E-2,4.7003007E-1,5.665332E-2,7.956615E-1,4.6357042E-1,4.745656E-1,1.5354544E-1],"categories":[],"categories_nodes":[],"categories_segments":[],"categories_sizes":[],"default_left":[0,0,0,0,0,0,0,0,0,0,0,0,0,0,0,0,0,0,0,0,0,0,0,0,0,0,0,0,0],"id":36,"left_children":[1,3,5,7,9,11,13,15,17,19,21,23,25,-1,27,-1,-1,-1,-1,-1,-1,-1,-1,-1,-1,-1,-1,-1,-1],"loss_changes":[3.2552947E4,2.1078684E4,4.8994316E3,3.612134E4,1.517729E4,2.9652168E3,6.543752E3,7.672568E3,1.2173102E4,7.8987715E3,5.054384E3,2.3723154E3,1.6072773E3,0E0,2.735541E3,0E0,0E0,0E0,0E0,0E0,0E0,0E0,0E0,0E0,0E0,0E0,0E0,0E0,0E0],"parents":[2147483647,0,0,1,1,2,2,3,3,4,4,5,5,6,6,7,7,8,8,9,9,10,10,11,11,12,12,14,14],"right_children":[2,4,6,8,10,12,14,16,18,20,22,24,26,-1,28,-1,-1,-1,-1,-1,-1,-1,-1,-1,-1,-1,-1,-1,-1],"split_conditions":[8.35E1,4.7054834E0,1.6592974E1,3.780513E1,4.5045048E1,1.95E1,3.4916782E1,1.3193577E1,1.21E1,7.49E1,5.4227443E0,8.74E1,2.33E1,-7.6252425E-1,3.157E1,3.468494E-2,-1.5422565E-1,-6.4327836E-2,4.1546386E-1,-9.453242E-2,-3.0188796E-1,4.291077E-1,-8.066024E-2,4.7003007E-1,5.665332E-2,7.956615E-1,4.6357042E-1,4.745656E-1,1.5354544E-1],"split_indices":[2,7,0,6,6,3,6,0,3,2,7,2,3,0,4,0,0,0,0,0,0,0,0,0,0,0,0,0,0],"split_type":[0,0,0,0,0,0,0,0,0,0,0,0,0,0,0,0,0,0,0,0,0,0,0,0,0,0,0,0,0],"sum_hessian":[2.792E3,2.559E3,2.33E2,1.178E3,1.381E3,1.17E2,1.16E2,8.41E2,3.37E2,1.296E3,8.5E1,5.2E1,6.5E1,5E0,1.11E2,5.41E2,3E2,5.7E1,2.8E2,1.102E3,1.94E2,6.1E1,2.4E1,3.1E1,2.1E1,2.9E1,3.6E1,3.5E1,7.6E1],"tree_param":{"num_deleted":"0","num_feature":"11","num_nodes":"29","size_leaf_vector":"1"}},{"base_weights":[3.7846217E-1,-6.021082E-1,1.1304388E1,-1.5880398E0,8.17043E0,7.3173637E0,1.809964E1,3.6204615E0,-3.9139624E0,2.4194815E1,3.7096622E0,1.6200117E1,3.694573E0,2.3934553E1,1.1082872E1,5.7814766E-2,4.8589483E-1,7.265108E-1,-1.2485063E-1,8.8616836E-1,3.669943E-1,-3.8029805E-1,1.7932567E-1,1.4468856E-1,5.2821666E-1,-7.462581E-1,1.6115452E-1,7.5559056E-1,1.4421111E-1,4.6309164E-1,-1.0850849E-2],"categories":[],"categories_nodes":[],"categories_segments":[],"categories_sizes":[],"default_left":[0,0,0,0,0,0,0,0,0,0,0,0,0,0,0,0,0,0,0,0,0,0,0,0,0,0,0,0,0,0,0],"id":37,"left_children":[1,3,5,7,9,11,13,15,17,19,21,23,25,27,29,-1,-1,-1,-1,-1,-1,-1,-1,-1,-1,-1,-1,-1,-1,-1,-1],"loss_changes":[2.9790723E4,2.2085535E4,6.0718223E3,2.7817113E4,1.8352363E4,4.6384785E3,3.1738828E3,1.5066963E4,1.1160209E4,3.2184297E3,7.6196094E3,5.874541E2,5.16508E3,9.5639844E2,1.9985474E3,0E0,0E0,0E0,0E0,0E0,0E0,0E0,0E0,0E0,0E0,0E0,0E0,0E0,0E0,0E0,0E0],"parents":[2147483647,0,0,1,1,2,2,3,3,4,4,5,5,6,6,7,7,8,8,9,9,10,10,11,11,12,12,13,13,14,14],"right_children":[2,4,6,8,10,12,14,16,18,20,22,24,26,28,30,-1,-1,-1,-1,-1,-1,-1,-1,-1,-1,-1,-1,-1,-1,-1,-1],"split_conditions":[8.35E1,4.2920155E1,8.89E1,1.3193577E1,1.672891E1,1.3670314E1,2.33E1,3.9090046E1,9.6E0,5.054E1,1.17E1,3.3100307E1,3.409933E1,4.2006287E1,2.0628098E1,5.7814766E-2,4.8589483E-1,7.265108E-1,-1.2485063E-1,8.8616836E-1,3.669943E-1,-3.8029805E-1,1.7932567E-1,1.4468856E-1,5.2821666E-1,-7.462581E-1,1.6115452E-1,7.5559056E-1,1.4421111E-1,4.6309164E-1,-1.0850849E-2],"split_indices":[2,6,2,0,0,0,3,6,3,4,3,6,6,6,0,0,0,0,0,0,0,0,0,0,0,0,0,0,0,0,0],"split_type":[0,0,0,0,0,0,0,0,0,0,0,0,0,0,0,0,0,0,0,0,0,0,0,0,0,0,0,0,0,0,0],"sum_hessian":[2.779E3,2.551E3,2.28E2,2.294E3,2.57E2,1.45E2,8.3E1,7.08E2,1.586E3,5.5E1,2.02E2,4.1E1,1.04E2,4.4E1,3.9E1,6.25E2,8.3E1,1.3E1,1.573E3,3.7E1,1.8E1,2.4E1,1.78E2,5E0,3.6E1,5E0,9.9E1,4.1E1,3E0,2.8E1,1.1E1],"tree_param":{"num_deleted":"0","num_feature":"11","num_nodes":"31","size_leaf_vector":"1"}},{"base_weights":[-7.0745036E-2,-1.0182835E0,1.0602941E1,4.090778E0,-2.5025425E0,6.588134E0,1.735924E1,5.7423335E-1,1.16395645E1,-3.168838E0,1.1378047E1,-1.4195046E1,8.413774E0,2.3805027E1,1.0346667E1,4.468445E-1,-3.3937763E-2,1.7151369E-1,5.015411E-1,-1.3250194E-1,3.138479E-2,-2.3619987E-1,4.406265E-1,-1.06372476E-1,-7.276015E-1,4.015456E-1,6.42763E-2,7.5522155E-1,1.2490562E-1,9.171886E-2,5.247136E-1],"categories":[],"categories_nodes":[],"categories_segments":[],"categories_sizes":[],"default_left":[0,0,0,0,0,0,0,0,0,0,0,0,0,0,0,0,0,0,0,0,0,0,0,0,0,0,0,0,0,0,0],"id":38,"left_children":[1,3,5,7,9,11,13,15,17,19,21,23,25,27,29,-1,-1,-1,-1,-1,-1,-1,-1,-1,-1,-1,-1,-1,-1,-1,-1],"loss_changes":[2.8157303E4,1.9400402E4,6.0430625E3,1.5283608E4,1.836673E4,5.5831675E3,3.550629E3,9.639766E3,5.408504E3,9.956293E3,5.9134766E3,1.1993745E3,4.1175693E3,1.0514453E3,2.133623E3,0E0,0E0,0E0,0E0,0E0,0E0,0E0,0E0,0E0,0E0,0E0,0E0,0E0,0E0,0E0,0E0],"parents":[2147483647,0,0,1,1,2,2,3,3,4,4,5,5,6,6,7,7,8,8,9,9,10,10,11,11,12,12,13,13,14,14],"right_children":[2,4,6,8,10,12,14,16,18,20,22,24,26,28,30,-1,-1,-1,-1,-1,-1,-1,-1,-1,-1,-1,-1,-1,-1,-1,-1],"split_conditions":[8.35E1,1.1109837E1,8.89E1,3.5961227E1,4.5045048E1,3.409933E1,2.33E1,1.16E1,8.975833E0,2.26E1,5.04E1,1.14181595E1,1.8386414E1,1.2465227E1,2.46E1,4.468445E-1,-3.3937763E-2,1.7151369E-1,5.015411E-1,-1.3250194E-1,3.138479E-2,-2.3619987E-1,4.406265E-1,-1.06372476E-1,-7.276015E-1,4.015456E-1,6.42763E-2,7.5522155E-1,1.2490562E-1,9.171886E-2,5.247136E-1],"split_indices":[2,0,2,6,6,6,3,3,0,3,2,0,0,5,3,0,0,0,0,0,0,0,0,0,0,0,0,0,0,0,0],"split_type":[0,0,0,0,0,0,0,0,0,0,0,0,0,0,0,0,0,0,0,0,0,0,0,0,0,0,0,0,0,0,0],"sum_hessian":[2.782E3,2.556E3,2.26E2,5.75E2,1.981E3,1.43E2,8.3E1,3.93E2,1.82E2,1.891E3,9E1,1.1E1,1.32E2,4.2E1,4.1E1,4.1E1,3.52E2,8.5E1,9.7E1,1.459E3,4.32E2,1.3E1,7.7E1,6E0,5E0,7.3E1,5.9E1,3.9E1,3E0,2.1E1,2E1],"tree_param":{"num_deleted":"0","num_feature":"11","num_nodes":"31","size_leaf_vector":"1"}},{"base_weights":[1.8109915E-1,2.2940386E1,-7.854727E-2,1.0316007E0,1.81691E1,-2.012309E0,3.1577764E0,-2.0587838E-1,2.3518574E1,1.7111541E0,-4.491434E0,2.468688E1,2.4558604E0,7.971693E-1,1.3981624E-1,1.0748485E-1,-1.07940935E-1,-2.9239407E-1,-7.689106E-2,2.1160637E-1,8.0862045E-1,1.6461085E-1,-5.028523E-2],"categories":[],"categories_nodes":[],"categories_segments":[],"categories_sizes":[],"default_left":[0,0,0,0,0,0,0,0,0,0,0,0,0,0,0,0,0,0,0,0,0,0,0],"id":39,"left_children":[1,3,5,-1,7,9,11,-1,13,15,17,19,21,-1,-1,-1,-1,-1,-1,-1,-1,-1,-1],"loss_changes":[1.6240742E4,1.0682471E3,1.7016355E4,0E0,3.3751548E3,1.5718731E4,1.5307892E4,0E0,1.0279092E3,6.780033E3,1.0331768E4,1.0891465E3,1.235874E4,0E0,0E0,0E0,0E0,0E0,0E0,0E0,0E0,0E0,0E0],"parents":[2147483647,0,0,1,1,2,2,4,4,5,5,6,6,8,8,9,9,10,10,11,11,12,12],"right_children":[2,4,6,-1,8,10,12,-1,14,16,18,20,22,-1,-1,-1,-1,-1,-1,-1,-1,-1,-1],"split_conditions":[9.6E0,1.07168E1,1.96E1,1.0316007E0,6.6357E1,3.469E1,1.97E1,-2.0587838E-1,5.237956E0,7.9898926E1,1.45E1,3.091E1,4.9271646E0,7.971693E-1,1.3981624E-1,1.0748485E-1,-1.07940935E-1,-2.9239407E-1,-7.689106E-2,2.1160637E-1,8.0862045E-1,1.6461085E-1,-5.028523E-2],"split_indices":[3,0,3,0,1,4,3,0,7,1,3,4,7,0,0,0,0,0,0,0,0,0,0],"split_type":[0,0,0,0,0,0,0,0,0,0,0,0,0,0,0,0,0,0,0,0,0,0,0],"sum_hessian":[2.747E3,3E1,2.717E3,7E0,2.3E1,1.701E3,1.016E3,4E0,1.9E1,6.8E2,1.021E3,3.1E1,9.85E2,1.6E1,3E0,5.03E2,1.77E2,2.73E2,7.48E2,4E0,2.7E1,5.68E2,4.17E2],"tree_param":{"num_deleted":"0","num_feature":"11","num_nodes":"23","size_leaf_vector":"1"}},{"base_weights":[3.0990157E-1,-9.256954E-1,8.092035E0,1.5562637E-1,-1.0483972E1,3.2201527E1,5.769188E0,-3.326509E-1,2.455416E1,-2.0689798E1,-6.6191783E0,3.731175E1,1.85891E1,-1.8710419E1,7.4891315E0,-8.394955E-2,1.268334E-1,1.1028038E0,2.3531301E-1,-4.2618755E-1,-8.3989525E-1,5.966881E-2,-4.7878867E-1,1.1787795E0,5.4237866E-1,3.2929458E-2,7.5033563E-1,6.396815E-2,-8.990601E-1,6.3456124E-1,1.2330435E-1],"categories":[],"categories_nodes":[],"categories_segments":[],"categories_sizes":[],"default_left":[0,0,0,0,0,0,0,0,0,0,0,0,0,0,0,0,0,0,0,0,0,0,0,0,0,0,0,0,0,0,0],"id":40,"left_children":[1,3,5,7,9,11,13,15,17,19,21,23,25,27,29,-1,-1,-1,-1,-1,-1,-1,-1,-1,-1,-1,-1,-1,-1,-1,-1],"loss_changes":[2.6527262E4,2.461063E4,2.0983232E4,2.5502521E4,9.408354E3,1.6019727E3,1.470795E4,2.3614049E4,8.278256E3,2.72892E3,1.4263223E4,1.6586523E2,1.2081946E3,5.460903E3,1.4871104E4,0E0,0E0,0E0,0E0,0E0,0E0,0E0,0E0,0E0,0E0,0E0,0E0,0E0,0E0,0E0,0E0],"parents":[2147483647,0,0,1,1,2,2,3,3,4,4,5,5,6,6,7,7,8,8,9,9,10,10,11,11,12,12,13,13,14,14],"right_children":[2,4,6,8,10,12,14,16,18,20,22,24,26,28,30,-1,-1,-1,-1,-1,-1,-1,-1,-1,-1,-1,-1,-1,-1,-1,-1],"split_conditions":[7.92E1,7.49E1,1.1E1,7.43E1,7.58E1,8.01E1,1.17E1,1.96E1,7.48E1,1.52E1,7.81E1,2.1829079E1,2.044E1,2.419E1,1.52E1,-8.394955E-2,1.268334E-1,1.1028038E0,2.3531301E-1,-4.2618755E-1,-8.3989525E-1,5.966881E-2,-4.7878867E-1,1.1787795E0,5.4237866E-1,3.2929458E-2,7.5033563E-1,6.396815E-2,-8.990601E-1,6.3456124E-1,1.2330435E-1],"split_indices":[2,2,3,2,2,2,3,3,2,3,2,0,4,4,3,0,0,0,0,0,0,0,0,0,0,0,0,0,0,0,0],"split_type":[0,0,0,0,0,0,0,0,0,0,0,0,0,0,0,0,0,0,0,0,0,0,0,0,0,0,0,0,0,0,0],"sum_hessian":[2.757E3,2.38E3,3.77E2,2.139E3,2.41E2,3.2E1,3.45E2,2.098E3,4.1E1,6.5E1,1.76E2,2.2E1,1E1,2.2E1,3.23E2,1.362E3,7.36E2,2.3E1,1.8E1,3.6E1,2.9E1,9.2E1,8.4E1,1.9E1,3E0,3E0,7E0,8E0,1.4E1,6.3E1,2.6E2],"tree_param":{"num_deleted":"0","num_feature":"11","num_nodes":"31","size_leaf_vector":"1"}},{"base_weights":[1.10718206E-1,-1.2055151E0,8.098725E0,-1.6734894E-1,-1.0222047E1,1.0298452E0,5.744723E0,-6.266374E-1,2.323804E1,-1.99944E1,-5.958232E0,1.8303128E0,1.4861399E1,-8.2077675E-2,1.0112312E-1,1.130997E0,2.3008834E-1,-4.3565804E-1,-7.9060394E-1,-1.864378E-2,-5.690258E-1,-3.3625767E-1,1.3660672E-1,5.0014323E-1,2.1083954E-1],"categories":[],"categories_nodes":[],"categories_segments":[],"categories_sizes":[],"default_left":[0,0,0,0,0,0,0,0,0,0,0,0,0,0,0,0,0,0,0,0,0,0,0,0,0],"id":41,"left_children":[1,3,5,7,9,-1,11,13,15,17,19,21,23,-1,-1,-1,-1,-1,-1,-1,-1,-1,-1,-1,-1],"loss_changes":[2.906017E4,2.2211133E4,2.394478E4,2.290094E4,1.0089406E4,0E0,1.2819906E4,1.7622988E4,8.941941E3,2.1924785E3,1.1929769E4,9.034593E3,1.4141426E3,0E0,0E0,0E0,0E0,0E0,0E0,0E0,0E0,0E0,0E0,0E0,0E0],"parents":[2147483647,0,0,1,1,2,2,3,3,4,4,6,6,7,7,8,8,9,9,10,10,11,11,12,12],"right_children":[2,4,6,8,10,-1,12,14,16,18,20,22,24,-1,-1,-1,-1,-1,-1,-1,-1,-1,-1,-1,-1],"split_conditions":[7.92E1,7.49E1,1.1E1,7.43E1,7.58E1,1.0298452E0,8.84E1,1.96E1,7.48E1,1.52E1,2.15E1,3.3471233E1,9.51E1,-8.2077675E-2,1.0112312E-1,1.130997E0,2.3008834E-1,-4.3565804E-1,-7.9060394E-1,-1.864378E-2,-5.690258E-1,-3.3625767E-1,1.3660672E-1,5.0014323E-1,2.1083954E-1],"split_indices":[2,2,3,2,2,0,2,3,2,3,3,6,2,0,0,0,0,0,0,0,0,0,0,0,0],"split_type":[0,0,0,0,0,0,0,0,0,0,0,0,0,0,0,0,0,0,0,0,0,0,0,0,0],"sum_hessian":[2.762E3,2.372E3,3.9E2,2.128E3,2.44E2,3.1E1,3.59E2,2.088E3,4E1,7.3E1,1.71E2,2.52E2,1.07E2,1.367E3,7.21E2,2E1,2E1,4.1E1,3.2E1,1.22E2,4.9E1,4.3E1,2.09E2,8.6E1,2.1E1],"tree_param":{"num_deleted":"0","num_feature":"11","num_nodes":"25","size_leaf_vector":"1"}},{"base_weights":[9.385951E-2,-7.9601586E-1,1.0307143E1,-1.3615842E0,1.3192794E1,6.7257686E0,1.5975795E1,3.11245E0,-2.7972322E0,-8.078533E0,1.70416E1,1.9969433E1,4.3321323E0,1.9036343E1,6.7648854E0,-1.1423083E-2,3.4447613E-1,-1.2626842E-1,3.0046903E-2,-4.7052696E-1,2.163501E-1,-3.186849E-1,5.5616665E-1,2.6592937E-1,7.836445E-1,4.2050987E-1,8.798425E-3,7.0776045E-1,3.4411994E-1,3.600751E-1,-1.2004852E-3],"categories":[],"categories_nodes":[],"categories_segments":[],"categories_sizes":[],"default_left":[0,0,0,0,0,0,0,0,0,0,0,0,0,0,0,0,0,0,0,0,0,0,0,0,0,0,0,0,0,0,0],"id":42,"left_children":[1,3,5,7,9,11,13,15,17,19,21,23,25,27,29,-1,-1,-1,-1,-1,-1,-1,-1,-1,-1,-1,-1,-1,-1,-1,-1],"loss_changes":[2.5401615E4,2.0358758E4,4.4400996E3,1.5886701E4,8.32459E3,4.3198613E3,2.2955977E3,1.7576744E4,1.0043407E4,1.9737926E3,3.7177812E3,1.2031562E3,4.6506606E3,1.9352578E3,8.2023425E2,0E0,0E0,0E0,0E0,0E0,0E0,0E0,0E0,0E0,0E0,0E0,0E0,0E0,0E0,0E0,0E0],"parents":[2147483647,0,0,1,1,2,2,3,3,4,4,5,5,6,6,7,7,8,8,9,9,10,10,11,11,12,12,13,13,14,14],"right_children":[2,4,6,8,10,12,14,16,18,20,22,24,26,28,30,-1,-1,-1,-1,-1,-1,-1,-1,-1,-1,-1,-1,-1,-1,-1,-1],"split_conditions":[8.35E1,4.5045048E1,8.89E1,5.7069305E1,5.25E1,2.419E1,9.51E1,3.5961227E1,4.0263123E1,6.089E1,1.17E1,2.044E1,1.3670314E1,1.1384906E1,1.7022676E1,-1.1423083E-2,3.4447613E-1,-1.2626842E-1,3.0046903E-2,-4.7052696E-1,2.163501E-1,-3.186849E-1,5.5616665E-1,2.6592937E-1,7.836445E-1,4.2050987E-1,8.798425E-3,7.0776045E-1,3.4411994E-1,3.600751E-1,-1.2004852E-3],"split_indices":[2,6,2,1,2,4,2,6,6,4,3,4,0,5,0,0,0,0,0,0,0,0,0,0,0,0,0,0,0,0,0],"split_type":[0,0,0,0,0,0,0,0,0,0,0,0,0,0,0,0,0,0,0,0,0,0,0,0,0,0,0,0,0,0,0],"sum_hessian":[2.793E3,2.57E3,2.23E2,2.471E3,9.9E1,1.38E2,8.5E1,6E2,1.871E3,1.5E1,8.4E1,2E1,1.18E2,6.3E1,2.2E1,4.24E2,1.76E2,1.364E3,5.07E2,1E1,5E0,4E0,8E1,8E0,1.2E1,3.4E1,8.4E1,3.8E1,2.5E1,1.2E1,1E1],"tree_param":{"num_deleted":"0","num_feature":"11","num_nodes":"31","size_leaf_vector":"1"}},{"base_weights":[-5.185201E-1,-1.8866394E0,3.6947644E0,2.543021E1,-2.1611316E0,7.9556475E0,-1.3377883E0,2.8005693E1,2.2448924E-1,2.1180046E0,-3.3050845E0,-7.635567E0,9.15625E0,-7.8592224E0,2.575242E0,9.160943E-1,4.5955086E-1,2.8438142E-2,5.6003946E-1,5.2074003E-3,-1.5380368E-1,-7.3144567E-1,4.5986012E-1,4.8663494E-1,1.4042477E-1,-2.8521875E-1,9.386584E-1,-1.0302703E0,9.969465E-2],"categories":[],"categories_nodes":[],"categories_segments":[],"categories_sizes":[],"default_left":[0,0,0,0,0,0,0,0,0,0,0,0,0,0,0,0,0,0,0,0,0,0,0,0,0,0,0,0,0],"id":43,"left_children":[1,3,5,7,9,11,13,15,-1,17,19,21,23,25,27,-1,-1,-1,-1,-1,-1,-1,-1,-1,-1,-1,-1,-1,-1],"loss_changes":[1.6060478E4,1.5823799E4,1.4656294E4,7.6111426E2,1.0203558E4,6.9958867E3,8.0330703E3,1.1019043E2,0E0,8.502715E3,1.0419078E4,1.0756805E4,1.0800832E4,7.910637E3,5.5535195E3,0E0,0E0,0E0,0E0,0E0,0E0,0E0,0E0,0E0,0E0,0E0,0E0,0E0,0E0],"parents":[2147483647,0,0,1,1,2,2,3,3,4,4,5,5,6,6,7,7,9,9,10,10,11,11,12,12,13,13,14,14],"right_children":[2,4,6,8,10,12,14,16,-1,18,20,22,24,26,28,-1,-1,-1,-1,-1,-1,-1,-1,-1,-1,-1,-1,-1,-1],"split_conditions":[2.26E1,9.5E0,2.57E1,5.0881386E0,1.062451E1,3.2414562E1,5.61E1,2.0486925E1,2.2448924E-1,3.9730354E1,3.469E1,5.181E1,1.573281E1,2.91E1,9.12232E0,9.160943E-1,4.5955086E-1,2.8438142E-2,5.6003946E-1,5.2074003E-3,-1.5380368E-1,-7.3144567E-1,4.5986012E-1,4.8663494E-1,1.4042477E-1,-2.8521875E-1,9.386584E-1,-1.0302703E0,9.969465E-2],"split_indices":[3,3,3,7,0,6,4,0,0,6,4,4,0,3,5,0,0,0,0,0,0,0,0,0,0,0,0,0,0],"split_type":[0,0,0,0,0,0,0,0,0,0,0,0,0,0,0,0,0,0,0,0,0,0,0,0,0,0,0,0,0],"sum_hessian":[2.784E3,2.102E3,6.82E2,2E1,2.082E3,3.69E2,3.13E2,1.7E1,3E0,4.39E2,1.643E3,2.6E1,3.43E2,1.17E2,1.96E2,1.3E1,4E0,4.11E2,2.8E1,5.65E2,1.078E3,1.5E1,1.1E1,1.32E2,2.11E2,1.13E2,4E0,3E0,1.93E2],"tree_param":{"num_deleted":"0","num_feature":"11","num_nodes":"29","size_leaf_vector":"1"}},{"base_weights":[-2.8469246E-2,-6.1746806E-1,1.4786525E1,2.8017857E0,-2.581439E0,2.0841589E1,1.1461255E1,1.1461174E0,1.7256401E1,-3.508153E0,7.5452824E0,2.3050066E1,3.0691978E-1,7.196616E-1,9.457893E0,-4.5240203E-1,4.5249727E-2,7.665154E-1,3.4318167E-1,-2.0314991E-1,-6.864364E-2,3.4186417E-1,-8.449915E-2,3.7000433E-1,7.4306375E-1,-1.660896E-1,3.632562E-1],"categories":[],"categories_nodes":[],"categories_segments":[],"categories_sizes":[],"default_left":[0,0,0,0,0,0,0,0,0,0,0,0,0,0,0,0,0,0,0,0,0,0,0,0,0,0,0],"id":44,"left_children":[1,3,5,7,9,11,13,15,17,19,21,23,-1,-1,25,-1,-1,-1,-1,-1,-1,-1,-1,-1,-1,-1,-1],"loss_changes":[2.3962037E4,1.7742379E4,1.8752754E3,2.305072E4,1.5773787E4,6.0780566E2,1.5299111E3,5.1124316E3,4.484164E3,6.1081855E3,5.6573433E3,2.2866309E2,0E0,0E0,2.5311865E3,0E0,0E0,0E0,0E0,0E0,0E0,0E0,0E0,0E0,0E0,0E0,0E0],"parents":[2147483647,0,0,1,1,2,2,3,3,4,4,5,5,6,6,7,7,8,8,9,9,10,10,11,11,14,14],"right_children":[2,4,6,8,10,12,14,16,18,20,22,24,-1,-1,26,-1,-1,-1,-1,-1,-1,-1,-1,-1,-1,-1,-1],"split_conditions":[8.84E1,4.5247455E0,4.2437754E0,4.0263123E1,4.4254517E1,9.51E1,8.88E1,3.14E1,6.3406273E1,3.4527184E1,5.4227443E0,8.89E1,3.0691978E-1,7.196616E-1,8.89E1,-4.5240203E-1,4.5249727E-2,7.665154E-1,3.4318167E-1,-2.0314991E-1,-6.864364E-2,3.4186417E-1,-8.449915E-2,3.7000433E-1,7.4306375E-1,-1.660896E-1,3.632562E-1],"split_indices":[2,7,7,6,6,2,2,2,1,6,7,2,0,0,2,0,0,0,0,0,0,0,0,0,0,0,0],"split_type":[0,0,0,0,0,0,0,0,0,0,0,0,0,0,0,0,0,0,0,0,0,0,0,0,0,0,0],"sum_hessian":[2.744E3,2.64E3,1.04E2,9.63E2,1.677E3,3.5E1,6.9E1,8.65E2,9.8E1,1.537E3,1.4E2,2.8E1,7E0,8E0,6.1E1,1.8E1,8.47E2,3.9E1,5.9E1,4.17E2,1.12E3,1.02E2,3.8E1,5E0,2.3E1,9E0,5.2E1],"tree_param":{"num_deleted":"0","num_feature":"11","num_nodes":"27","size_leaf_vector":"1"}},{"base_weights":[-5.6247253E-2,-8.5086876E-1,8.994851E0,-1.323952E0,1.1077647E1,2.0501427E1,7.100039E0,9.1452616E-1,-4.487009E0,-9.796117E0,1.3861456E1,3.6357486E-1,2.2028404E1,-6.061383E0,8.2432E0,-5.228789E-3,2.5466508E-1,-1.8510553E-1,-1.51160825E-2,-6.4071643E-1,4.5385174E-2,-5.086549E-1,4.7919118E-1,6.95181E-1,3.0683017E-1,6.921001E-1,-5.308303E-1,4.4504738E-1,1.7085667E-1],"categories":[],"categories_nodes":[],"categories_segments":[],"categories_sizes":[],"default_left":[0,0,0,0,0,0,0,0,0,0,0,0,0,0,0,0,0,0,0,0,0,0,0,0,0,0,0,0,0],"id":45,"left_children":[1,3,5,7,9,11,13,15,17,19,21,-1,23,25,27,-1,-1,-1,-1,-1,-1,-1,-1,-1,-1,-1,-1,-1,-1],"loss_changes":[1.9872502E4,1.4348344E4,4.716463E3,1.7308684E4,5.7723184E3,1.2981934E2,2.9537705E3,1.181126E4,6.788371E3,1.6012373E3,5.867006E3,0E0,1.0058496E2,5.8303584E3,2.9051191E3,0E0,0E0,0E0,0E0,0E0,0E0,0E0,0E0,0E0,0E0,0E0,0E0,0E0,0E0],"parents":[2147483647,0,0,1,1,2,2,3,3,4,4,5,5,6,6,7,7,8,8,9,9,10,10,12,12,13,13,14,14],"right_children":[2,4,6,8,10,12,14,16,18,20,22,-1,24,26,28,-1,-1,-1,-1,-1,-1,-1,-1,-1,-1,-1,-1,-1,-1],"split_conditions":[8.35E1,4.5045048E1,9.175932E0,1.1231672E1,5.04E1,8.290638E0,3.437321E1,4.0263123E1,2.26E1,5.632E1,1.17E1,3.6357486E-1,4.176E1,2.369E1,3.17E1,-5.228789E-3,2.5466508E-1,-1.8510553E-1,-1.51160825E-2,-6.4071643E-1,4.5385174E-2,-5.086549E-1,4.7919118E-1,6.95181E-1,3.0683017E-1,6.921001E-1,-5.308303E-1,4.4504738E-1,1.7085667E-1],"split_indices":[2,6,5,5,2,5,6,6,3,4,3,0,4,4,4,0,0,0,0,0,0,0,0,0,0,0,0,0,0],"split_type":[0,0,0,0,0,0,0,0,0,0,0,0,0,0,0,0,0,0,0,0,0,0,0,0,0,0,0,0,0],"sum_hessian":[2.761E3,2.539E3,2.22E2,2.443E3,9.6E1,3E1,1.92E2,1.431E3,1.012E3,1.1E1,8.5E1,6E0,2.4E1,1.5E1,1.77E2,1.252E3,1.79E2,7.11E2,3.01E2,5E0,6E0,5E0,8E1,2.1E1,3E0,4E0,1.1E1,4.8E1,1.29E2],"tree_param":{"num_deleted":"0","num_feature":"11","num_nodes":"29","size_leaf_vector":"1"}},{"base_weights":[1.8588315E-1,2.2595215E0,-2.4594212E0,-9.428277E-1,6.694602E0,7.902356E0,-2.951166E0,-4.0135336E-1,-2.6370998E1,9.492205E0,-6.188062E-1,1.9734488E1,3.4884434E0,-3.4522536E0,5.130792E0,8.399497E-1,-1.9711267E-2,-9.6251196E-1,9.218067E-2,2.4014018E-1,7.401833E-1,-3.6950094E-1,5.5439368E-2,-4.1672934E-2,9.1305566E-1,-1.4961109E-1,3.918247E-1,5.8316624E-1,-1.0721265E-1,2.211179E-1,-9.932605E-1],"categories":[],"categories_nodes":[],"categories_segments":[],"categories_sizes":[],"default_left":[0,0,0,0,0,0,0,0,0,0,0,0,0,0,0,0,0,0,0,0,0,0,0,0,0,0,0,0,0,0,0],"id":46,"left_children":[1,3,5,7,9,11,13,15,17,19,21,23,25,27,29,-1,-1,-1,-1,-1,-1,-1,-1,-1,-1,-1,-1,-1,-1,-1,-1],"loss_changes":[1.5353719E4,2.2290312E4,6.2906016E3,1.2546473E4,1.34685625E4,2.855813E3,4.7761904E3,6.510162E3,3.294459E3,1.0551332E4,5.303443E3,3.432836E3,3.4726162E3,3.148374E3,6.1538086E3,0E0,0E0,0E0,0E0,0E0,0E0,0E0,0E0,0E0,0E0,0E0,0E0,0E0,0E0,0E0,0E0],"parents":[2147483647,0,0,1,1,2,2,3,3,4,4,5,5,6,6,7,7,8,8,9,9,10,10,11,11,12,12,13,13,14,14],"right_children":[2,4,6,8,10,12,14,16,18,20,22,24,26,28,30,-1,-1,-1,-1,-1,-1,-1,-1,-1,-1,-1,-1,-1,-1,-1,-1],"split_conditions":[4.87361E0,3.675302E1,2.487E1,3.6587055E1,1.7592386E1,5.0781145E0,4.5045048E1,9.5E0,2.42E1,4.3343235E1,1.21E1,1.042106E1,2.1075748E1,9.6E0,9.893098E1,8.399497E-1,-1.9711267E-2,-9.6251196E-1,9.218067E-2,2.4014018E-1,7.401833E-1,-3.6950094E-1,5.5439368E-2,-4.1672934E-2,9.1305566E-1,-1.4961109E-1,3.918247E-1,5.8316624E-1,-1.0721265E-1,2.211179E-1,-9.932605E-1],"split_indices":[7,6,4,6,0,7,6,3,3,6,3,5,0,3,1,0,0,0,0,0,0,0,0,0,0,0,0,0,0,0,0],"split_type":[0,0,0,0,0,0,0,0,0,0,0,0,0,0,0,0,0,0,0,0,0,0,0,0,0,0,0,0,0,0,0],"sum_hessian":[2.797E3,1.568E3,1.229E3,9.11E2,6.57E2,5.5E1,1.174E3,8.93E2,1.8E1,4.75E2,1.82E2,1.4E1,4.1E1,1.106E3,6.8E1,7E0,8.86E2,1.5E1,3E0,4.34E2,4.1E1,3.1E1,1.51E2,5E0,9E0,2.2E1,1.9E1,5E0,1.101E3,6.5E1,3E0],"tree_param":{"num_deleted":"0","num_feature":"11","num_nodes":"31","size_leaf_vector":"1"}},{"base_weights":[-2.6400223E-1,-1.0995371E0,9.000685E0,-1.8714724E0,7.2503157E0,1.5352739E1,6.1830173E0,2.7141852E0,-3.38156E0,-1.7929028E1,9.354308E0,8.71336E-3,1.6022835E1,-2.0063305E1,7.3284445E0,4.824711E-2,5.9573495E-1,-9.6565776E-2,-1.038722E0,-6.582316E-1,1.7859707E-2,-4.4149658E-1,3.588717E-1,5.099144E-1,2.0137939E-1,-2.8402096E-1,-7.6930255E-1,4.2739707E-1,1.4394772E-1],"categories":[],"categories_nodes":[],"categories_segments":[],"categories_sizes":[],"default_left":[0,0,0,0,0,0,0,0,0,0,0,0,0,0,0,0,0,0,0,0,0,0,0,0,0,0,0,0,0],"id":47,"left_children":[1,3,5,7,9,11,13,15,17,19,21,-1,23,25,27,-1,-1,-1,-1,-1,-1,-1,-1,-1,-1,-1,-1,-1,-1],"loss_changes":[2.152205E4,1.6449709E4,4.0216113E3,1.617846E4,1.1610779E4,7.0186914E2,4.9872183E3,1.0945895E4,8.819713E3,1.2765054E3,1.2731801E4,0E0,4.936621E2,1.711101E2,2.6447842E3,0E0,0E0,0E0,0E0,0E0,0E0,0E0,0E0,0E0,0E0,0E0,0E0,0E0,0E0],"parents":[2147483647,0,0,1,1,2,2,3,3,4,4,5,5,6,6,7,7,8,8,9,9,10,10,12,12,13,13,14,14],"right_children":[2,4,6,8,10,12,14,16,18,20,22,-1,24,26,28,-1,-1,-1,-1,-1,-1,-1,-1,-1,-1,-1,-1,-1,-1],"split_conditions":[8.35E1,4.3343235E1,1.3793987E1,1.1024442E1,4.6E1,6.84326E0,3.409933E1,3.9923958E1,8.25E1,5.5141325E0,1.17E1,8.71336E-3,9.51E1,3.2829163E1,3.005E1,4.824711E-2,5.9573495E-1,-9.6565776E-2,-1.038722E0,-6.582316E-1,1.7859707E-2,-4.4149658E-1,3.588717E-1,5.099144E-1,2.0137939E-1,-2.8402096E-1,-7.6930255E-1,4.2739707E-1,1.4394772E-1],"split_indices":[2,6,0,0,2,0,6,6,2,7,3,0,2,6,4,0,0,0,0,0,0,0,0,0,0,0,0,0,0],"split_type":[0,0,0,0,0,0,0,0,0,0,0,0,0,0,0,0,0,0,0,0,0,0,0,0,0,0,0,0,0],"sum_hessian":[2.778E3,2.549E3,2.29E2,2.334E3,2.15E2,6.9E1,1.6E2,5.78E2,1.756E3,1.6E1,1.99E2,3E0,6.6E1,6E0,1.54E2,5.44E2,3.4E1,1.748E3,8E0,1.3E1,3E0,1.9E1,1.8E2,5.9E1,7E0,3E0,3E0,4E1,1.14E2],"tree_param":{"num_deleted":"0","num_feature":"11","num_nodes":"29","size_leaf_vector":"1"}},{"base_weights":[-2.2526816E-1,-1.3093386E0,6.674476E0,-3.0729583E-1,-9.897057E0,2.8540932E1,4.781139E0,-9.09215E-1,1.1143159E1,-2.0388266E1,-5.2509203E0,3.2805515E1,1.8192509E1,1.1472766E0,1.3249224E1,5.340853E-3,-3.911164E-1,6.752879E-1,-2.3940837E-1,-4.5919117E-1,-7.725239E-1,1.6344205E-1,-3.4239814E-1,1.0391759E0,5.043298E-1,1.5035774E-1,6.752621E-1,2.7477005E-1,-1.2659009E-1,4.9976015E-1,2.3215245E-1],"categories":[],"categories_nodes":[],"categories_segments":[],"categories_sizes":[],"default_left":[0,0,0,0,0,0,0,0,0,0,0,0,0,0,0,0,0,0,0,0,0,0,0,0,0,0,0,0,0,0,0],"id":48,"left_children":[1,3,5,7,9,11,13,15,17,19,21,23,25,27,29,-1,-1,-1,-1,-1,-1,-1,-1,-1,-1,-1,-1,-1,-1,-1,-1],"loss_changes":[2.0877406E4,2.0752848E4,1.5554359E4,1.4904279E4,1.2176326E4,7.271387E2,1.0754951E4,2.7086543E4,2.3655094E4,1.7042383E3,1.1666023E4,4.2578125E0,5.1298267E2,1.061628E4,1.8439121E3,0E0,0E0,0E0,0E0,0E0,0E0,0E0,0E0,0E0,0E0,0E0,0E0,0E0,0E0,0E0,0E0],"parents":[2147483647,0,0,1,1,2,2,3,3,4,4,5,5,6,6,7,7,8,8,9,9,10,10,11,11,12,12,13,13,14,14],"right_children":[2,4,6,8,10,12,14,16,18,20,22,24,26,28,30,-1,-1,-1,-1,-1,-1,-1,-1,-1,-1,-1,-1,-1,-1,-1,-1],"split_conditions":[7.92E1,7.49E1,1.1E1,7.36E1,7.58E1,8.01E1,8.84E1,7.19E1,2.3E1,1.52E1,1.5E1,2.1469065E1,2.044E1,1.81E1,2.33E1,5.340853E-3,-3.911164E-1,6.752879E-1,-2.3940837E-1,-4.5919117E-1,-7.725239E-1,1.6344205E-1,-3.4239814E-1,1.0391759E0,5.043298E-1,1.5035774E-1,6.752621E-1,2.7477005E-1,-1.2659009E-1,4.9976015E-1,2.3215245E-1],"split_indices":[2,2,3,2,2,2,2,2,3,3,3,0,4,3,3,0,0,0,0,0,0,0,0,0,0,0,0,0,0,0,0],"split_type":[0,0,0,0,0,0,0,0,0,0,0,0,0,0,0,0,0,0,0,0,0,0,0,0,0,0,0,0,0,0,0],"sum_hessian":[2.789E3,2.411E3,3.78E2,2.16E3,2.51E2,2.9E1,3.49E2,2.053E3,1.07E2,7.6E1,1.75E2,1.9E1,1E1,2.45E2,1.04E2,1.885E3,1.68E2,6.7E1,4E1,4.1E1,3.5E1,6.4E1,1.11E2,1.6E1,3E0,3E0,7E0,9.8E1,1.47E2,6.3E1,4.1E1],"tree_param":{"num_deleted":"0","num_feature":"11","num_nodes":"31","size_leaf_vector":"1"}},{"base_weights":[-1.549564E-1,-8.300961E-1,7.7686234E0,-2.299878E0,3.6616979E0,1.1120327E1,2.249573E0,2.0619817E0,-4.1933727E0,1.5816024E1,1.409944E0,8.095447E0,1.7057407E1,-1.7630434E1,4.0048356E0,-1.9449936E-2,2.8275296E-1,-8.393985E-2,-3.5806954E-1,-2.3103844E-1,5.3067285E-1,1.4474904E-2,5.8750856E-1,5.175051E-1,1.782348E-1,5.888251E-1,1.8297966E-1,-7.8179866E-1,-1.4379913E-1,5.4993314E-1,7.002606E-2],"categories":[],"categories_nodes":[],"categories_segments":[],"categories_sizes":[],"default_left":[0,0,0,0,0,0,0,0,0,0,0,0,0,0,0,0,0,0,0,0,0,0,0,0,0,0,0,0,0,0,0],"id":49,"left_children":[1,3,5,7,9,11,13,15,17,19,21,23,25,27,29,-1,-1,-1,-1,-1,-1,-1,-1,-1,-1,-1,-1,-1,-1,-1,-1],"loss_changes":[1.4920919E4,1.697545E4,4.0260938E3,1.600664E4,1.7329361E4,2.30433E3,3.001756E3,1.1720488E4,1.4562E4,4.497135E3,9.024899E3,1.7119287E3,1.1476357E3,6.3256274E2,1.8240593E3,0E0,0E0,0E0,0E0,0E0,0E0,0E0,0E0,0E0,0E0,0E0,0E0,0E0,0E0,0E0,0E0],"parents":[2147483647,0,0,1,1,2,2,3,3,4,4,5,5,6,6,7,7,8,8,9,9,10,10,11,11,12,12,13,13,14,14],"right_children":[2,4,6,8,10,12,14,16,18,20,22,24,26,28,30,-1,-1,-1,-1,-1,-1,-1,-1,-1,-1,-1,-1,-1,-1,-1,-1],"split_conditions":[8.35E1,4.029793E1,1.1108967E1,5.734011E1,4.5309577E0,8.89E1,1.4589898E1,3.5961227E1,7.49E1,2.64E1,4.7179604E1,2.419E1,9.51E1,3.6935814E1,1.6351135E1,-1.9449936E-2,2.8275296E-1,-8.393985E-2,-3.5806954E-1,-2.3103844E-1,5.3067285E-1,1.4474904E-2,5.8750856E-1,5.175051E-1,1.782348E-1,5.888251E-1,1.8297966E-1,-7.8179866E-1,-1.4379913E-1,5.4993314E-1,7.002606E-2],"split_indices":[2,6,5,1,7,2,0,6,2,4,6,4,2,6,0,0,0,0,0,0,0,0,0,0,0,0,0,0,0,0,0],"split_type":[0,0,0,0,0,0,0,0,0,0,0,0,0,0,0,0,0,0,0,0,0,0,0,0,0,0,0,0,0,0,0],"sum_hessian":[2.787E3,2.569E3,2.18E2,1.936E3,6.33E2,1.35E2,8.3E1,5.86E2,1.35E3,9.8E1,5.35E2,9.1E1,4.4E1,6E0,7.7E1,4.29E2,1.57E2,1.145E3,2.05E2,7E0,9.1E1,5.1E2,2.5E1,1.6E1,7.5E1,3.5E1,9E0,3E0,3E0,7E0,7E1],"tree_param":{"num_deleted":"0","num_feature":"11","num_nodes":"31","size_leaf_vector":"1"}},{"base_weights":[-3.029674E-2,-7.4200666E-1,9.995359E0,8.5171324E-1,-3.923098E0,6.6148705E0,1.4069998E1,-6.6823596E-1,8.934746E0,-5.4176416E0,3.0060403E0,-7.677598E0,8.764645E0,1.8793003E1,8.522943E0,-3.4523085E-2,3.132297E-1,-1.14599E-1,3.1890297E-1,-1.1826892E-1,-2.777241E-1,-3.0361226E-1,1.6109681E-1,1.3128574E-1,-9.074897E-1,3.9663228E-1,1.007038E-1,6.197958E-1,1.0578758E-1,4.990531E-2,4.80506E-1],"categories":[],"categories_nodes":[],"categories_segments":[],"categories_sizes":[],"default_left":[0,0,0,0,0,0,0,0,0,0,0,0,0,0,0,0,0,0,0,0,0,0,0,0,0,0,0,0,0,0,0],"id":50,